{
  "features_info":
    {
      "float_features":
        [
          {
            "borders":
              [
                40.125007629394531,
                40.262916564941406,
                40.368064880371094,
                40.427589416503906,
                40.459552764892578,
                40.516143798828125,
                40.640708923339844,
                40.711383819580078,
                40.781730651855469,
                41.091361999511719,
                41.306427001953125,
                41.444725036621094,
                41.488567352294922,
                41.593116760253906,
                41.675819396972656,
                41.705265045166016,
                41.755599975585938,
                41.891082763671875,
                42.141395568847656,
                42.265830993652344,
                42.621696472167969,
                42.876453399658203,
                42.983249664306641,
                43.281532287597656,
                43.539608001708984,
                44.002227783203125,
                44.393272399902344,
                44.547569274902344,
                44.731040954589844,
                44.867172241210938,
                44.947311401367188,
                45.076885223388672,
                45.177150726318359,
                45.231048583984375,
                45.337940216064453,
                45.494049072265625,
                45.517784118652344,
                45.532020568847656,
                45.622718811035156,
                45.801033020019531,
                45.986900329589844,
                46.097236633300781,
                46.15704345703125,
                46.232872009277344,
                46.264411926269531,
                46.355209350585938,
                46.511829376220703,
                46.546653747558594,
                46.575454711914063,
                46.599342346191406,
                46.711257934570313,
                46.94732666015625,
                47.174766540527344,
                47.259437561035156,
                47.391937255859375,
                47.586845397949219,
                47.716278076171875,
                47.780799865722656,
                47.886680603027344,
                48.064262390136719,
                48.524665832519531,
                48.724411010742188,
                48.788772583007813,
                48.919975280761719,
                49.111465454101563,
                49.423355102539063,
                49.964023590087891,
                50.062721252441406,
                50.141391754150391,
                50.192878723144531,
                50.299522399902344,
                50.369899749755859,
                50.474250793457031,
                50.504554748535156,
                50.598842620849609,
                50.672897338867188,
                50.902622222900391,
                50.966602325439453,
                51.093257904052734,
                51.137725830078125,
                51.154167175292969,
                51.196250915527344,
                51.292415618896484,
                51.39129638671875,
                51.46026611328125,
                51.483863830566406,
                51.583992004394531,
                51.654647827148438,
                51.734687805175781,
                51.769435882568359,
                51.844879150390625,
                52.000450134277344,
                52.0997314453125,
                52.168243408203125,
                52.339157104492188,
                52.489120483398438,
                52.619277954101563,
                52.802993774414063,
                52.879108428955078,
                52.956550598144531,
                53.090690612792969,
                53.331878662109375,
                53.446140289306641,
                53.52276611328125,
                53.658203125,
                54.118301391601563,
                54.470848083496094,
                54.66595458984375,
                54.758949279785156,
                54.891876220703125,
                55.012405395507813,
                55.078742980957031,
                55.354156494140625,
                55.453697204589844,
                55.541641235351563,
                55.657405853271484,
                55.762947082519531,
                55.795448303222656,
                55.823226928710938,
                55.906234741210938,
                56.011672973632813,
                56.167411804199219,
                56.356143951416016,
                56.501083374023438,
                56.600513458251953,
                56.872062683105469,
                56.949199676513672,
                57.007499694824219,
                57.055294036865234,
                57.18255615234375,
                57.299789428710938,
                57.370674133300781,
                57.389610290527344,
                57.482189178466797,
                57.552864074707031,
                57.590679168701172,
                57.652549743652344,
                57.736129760742188,
                57.820365905761719,
                57.95880126953125,
                58.088523864746094,
                58.368389129638672,
                58.419200897216797,
                58.445064544677734,
                58.478446960449219,
                58.54461669921875,
                58.74005126953125,
                58.9385986328125,
                59.047637939453125,
                59.116806030273438,
                59.137649536132813,
                59.407691955566406,
                59.528820037841797,
                59.616043090820313,
                59.796730041503906,
                59.887310028076172,
                60.224868774414063,
                60.274993896484375,
                60.298934936523438,
                60.335845947265625,
                60.477516174316406,
                60.600471496582031,
                60.666645050048828,
                60.810619354248047,
                60.846992492675781,
                60.914348602294922,
                61.020675659179688,
                61.211357116699219,
                61.33404541015625,
                61.380950927734375,
                61.502532958984375,
                61.572296142578125,
                61.609390258789063,
                61.655601501464844,
                61.721439361572266,
                61.879459381103516,
                62.023666381835938,
                62.155029296875,
                62.436119079589844,
                62.630447387695313,
                62.827793121337891,
                63.125011444091797,
                63.219497680664063,
                63.30224609375,
                63.318290710449219,
                63.366065979003906,
                63.381694793701172,
                63.586845397949219,
                63.658447265625,
                63.765830993652344,
                63.863971710205078,
                64.012298583984375,
                64.214363098144531,
                64.36566162109375,
                64.576553344726563,
                64.890045166015625,
                65.510307312011719,
                65.851181030273438,
                66.125808715820313,
                66.512908935546875,
                66.752883911132813,
                67.094955444335938,
                67.222633361816406,
                67.415138244628906,
                67.504051208496094,
                67.595199584960938,
                67.947723388671875,
                68.221328735351563,
                68.711074829101563,
                69.11492919921875,
                69.154922485351563,
                69.194808959960938,
                69.275634765625,
                69.461448669433594,
                69.523956298828125,
                69.561866760253906,
                69.603134155273438,
                69.665458679199219,
                69.722793579101563,
                69.7392578125,
                69.777420043945313,
                69.797660827636719,
                69.816871643066406,
                69.85443115234375,
                69.900657653808594,
                69.974075317382813,
                69.987411499023438,
                70.069602966308594,
                70.142074584960938,
                70.29595947265625,
                70.367408752441406,
                70.400138854980469,
                70.494583129882813,
                70.522132873535156,
                70.613555908203125,
                70.630264282226563,
                70.705963134765625,
                70.862045288085938,
                70.987991333007813,
                71.458770751953125,
                71.773521423339844,
                71.890937805175781,
                72.019805908203125,
                72.727981567382813,
                73.442962646484375,
                73.93194580078125,
                74.261917114257813
              ],
            "feature_id":"noise_db",
            "feature_index":0,
            "flat_feature_index":0,
            "has_nans":false,
            "nan_value_treatment":"AsIs"
          },
          {
            "borders":
              [
                50.400890350341797,
                54.194835662841797,
                55.1435546875,
                56.754634857177734,
                58.266208648681641,
                58.762657165527344,
                59.728744506835938,
                60.588088989257813,
                61.224700927734375,
                62.13653564453125,
                62.690692901611328,
                63.232856750488281,
                63.448879241943359,
                64.259765625,
                64.477554321289063,
                64.971809387207031,
                65.463424682617188,
                65.517509460449219,
                65.97119140625,
                66.244552612304688,
                66.317291259765625,
                66.989212036132813,
                67.52252197265625,
                68.092529296875,
                68.528907775878906,
                68.916885375976563,
                69.227607727050781,
                70.29119873046875,
                71.115066528320313,
                71.260322570800781,
                71.474212646484375,
                71.640625,
                72.078559875488281,
                72.652122497558594,
                72.94793701171875,
                73.375328063964844,
                73.866798400878906,
                74.027229309082031,
                74.07867431640625,
                74.110427856445313,
                74.496376037597656,
                74.643798828125,
                74.963043212890625,
                75.297607421875,
                75.675582885742188,
                76.050888061523438,
                77.039230346679688,
                77.157730102539063,
                77.279441833496094,
                77.409866333007813,
                78.2686767578125,
                78.626960754394531,
                78.853713989257813,
                79.085159301757813,
                79.568939208984375,
                79.8857421875,
                80.412139892578125,
                80.695945739746094,
                81.020301818847656,
                81.321517944335938,
                81.390167236328125,
                81.420677185058594,
                81.628494262695313,
                82.006103515625,
                82.775360107421875,
                82.9332275390625,
                83.192550659179688,
                83.462844848632813,
                83.581924438476563,
                84.224502563476563,
                84.524612426757813,
                84.771087646484375,
                85.0074462890625,
                85.266860961914063,
                85.443473815917969,
                85.588973999023438,
                85.818252563476563,
                86.178642272949219,
                86.334403991699219,
                86.69219970703125,
                86.833724975585938,
                87.031646728515625,
                87.310371398925781,
                87.502876281738281,
                87.593399047851563,
                87.807762145996094,
                87.943687438964844,
                88.180419921875,
                88.423019409179688,
                88.548477172851563,
                88.711761474609375,
                88.889602661132813,
                89.346786499023438,
                89.737892150878906,
                90.111007690429688,
                90.268692016601563,
                90.31951904296875,
                90.529144287109375,
                90.757736206054688,
                91.0611572265625,
                91.54949951171875,
                91.790534973144531,
                92.085540771484375,
                92.454238891601563,
                92.788833618164063,
                92.98419189453125,
                93.273239135742188,
                93.590988159179688,
                93.714248657226563,
                93.894454956054688,
                94.017814636230469,
                94.198776245117188,
                94.380096435546875,
                94.448944091796875,
                94.516815185546875,
                94.772659301757813,
                94.889205932617188,
                95.146530151367188,
                95.479385375976563,
                95.705215454101563,
                96.075027465820313,
                96.470870971679688,
                96.7479248046875,
                96.913589477539063,
                97.029571533203125,
                97.2489013671875,
                97.436508178710938,
                97.61279296875,
                97.672073364257813,
                97.787033081054688,
                97.901199340820313,
                98.077484130859375,
                98.22515869140625,
                98.412834167480469,
                98.87164306640625,
                99.590972900390625,
                99.7706298828125,
                99.884811401367188,
                99.998085021972656,
                100.3231201171875,
                100.4566650390625,
                100.58364868164063,
                100.68318176269531,
                101.08659362792969,
                101.30500793457031,
                101.40174865722656,
                101.64633178710938,
                101.85978698730469,
                102.08938598632813,
                102.47479248046875,
                102.57598114013672,
                102.77974700927734,
                102.94993591308594,
                103.12669372558594,
                103.42805480957031,
                103.64987182617188,
                103.99571228027344,
                104.17320251464844,
                104.2857666015625,
                104.5650634765625,
                104.65191650390625,
                104.80658721923828,
                104.96913146972656,
                105.40796661376953,
                105.43008422851563,
                105.51460266113281,
                105.68811798095703,
                105.86573791503906,
                106.17021179199219,
                106.34037780761719,
                106.56305694580078,
                106.67131042480469,
                106.90678405761719,
                107.09884643554688,
                107.35568237304688,
                107.44758605957031,
                107.76486968994141,
                107.85332489013672,
                108.04129028320313,
                108.2169189453125,
                108.58638763427734,
                108.84204864501953,
                109.43958282470703,
                109.72557067871094,
                109.77734375,
                109.83123779296875,
                110.07897186279297,
                110.9515380859375,
                111.37355804443359,
                111.69059753417969,
                112.22893524169922,
                112.68672180175781,
                112.95477294921875,
                113.43656921386719,
                113.61039733886719,
                113.78169250488281,
                113.91653442382813,
                114.11341094970703,
                114.26329040527344,
                114.80270385742188,
                115.10859680175781,
                115.36430358886719,
                115.57620239257813,
                115.79512023925781,
                115.85657501220703,
                115.92977905273438,
                116.106201171875,
                116.49508666992188,
                116.75124359130859,
                116.93109130859375,
                117.02093505859375,
                117.37574768066406,
                117.65396881103516,
                117.76934814453125,
                118.00936889648438,
                118.4730224609375,
                118.80458831787109,
                119.28973388671875,
                119.58334350585938,
                119.77507781982422,
                119.96963500976563,
                120.10674285888672,
                120.17501068115234,
                120.40464019775391,
                120.52167510986328,
                120.63505554199219,
                120.85691833496094,
                122.39599609375,
                123.12301635742188,
                123.47248840332031,
                123.92027282714844,
                124.05584716796875,
                124.25354766845703,
                124.92947387695313,
                125.73118591308594,
                126.18662261962891,
                126.68177795410156,
                126.94635009765625,
                127.07643127441406,
                127.38776397705078,
                127.51866912841797,
                127.79293823242188,
                130.2412109375,
                131.07792663574219,
                131.92880249023438,
                133.19015502929688,
                135.1641845703125,
                138.05734252929688,
                139.1141357421875,
                141.09434509277344,
                142.58425903320313,
                145.48509216308594
              ],
            "feature_id":"water_outlet_temp",
            "feature_index":1,
            "flat_feature_index":1,
            "has_nans":false,
            "nan_value_treatment":"AsIs"
          },
          {
            "borders":
              [
                38.821784973144531,
                39.024032592773438,
                39.111202239990234,
                39.177852630615234,
                39.363754272460938,
                40.633293151855469,
                40.963401794433594,
                41.051872253417969,
                41.135589599609375,
                41.178413391113281,
                41.506488800048828,
                41.60943603515625,
                41.856651306152344,
                41.957767486572266,
                42.516998291015625,
                42.587039947509766,
                42.671096801757813,
                42.7589111328125,
                43.283531188964844,
                43.646072387695313,
                43.70758056640625,
                43.758377075195313,
                43.801292419433594,
                43.888069152832031,
                44.033771514892578,
                44.621673583984375,
                45.154914855957031,
                45.201278686523438,
                45.259506225585938,
                45.366844177246094,
                45.441238403320313,
                45.540718078613281,
                45.592781066894531,
                45.684017181396484,
                45.816112518310547,
                46.13812255859375,
                46.841629028320313,
                47.331676483154297,
                49.330787658691406,
                50.386421203613281,
                50.496986389160156,
                50.673477172851563,
                50.910411834716797,
                51.011054992675781,
                51.088882446289063,
                51.158088684082031,
                51.2861328125,
                51.455162048339844,
                51.675376892089844,
                51.752182006835938,
                51.766883850097656,
                51.924354553222656,
                51.988201141357422,
                52.006217956542969,
                52.13006591796875,
                52.226966857910156,
                52.337932586669922,
                52.839523315429688,
                53.404228210449219,
                53.441757202148438,
                53.490791320800781,
                53.560222625732422,
                53.653190612792969,
                53.816013336181641,
                53.93585205078125,
                57.699577331542969,
                57.795669555664063,
                57.816154479980469,
                57.850532531738281,
                57.852458953857422,
                57.868148803710938,
                57.889244079589844,
                57.908950805664063,
                57.916088104248047,
                57.928688049316406,
                57.94171142578125,
                57.951133728027344,
                57.96380615234375,
                57.974510192871094,
                57.983894348144531,
                57.993999481201172,
                57.999565124511719,
                58.001014709472656,
                58.012367248535156,
                58.015243530273438,
                58.018020629882813,
                58.02203369140625,
                58.030811309814453,
                58.041481018066406,
                58.045265197753906,
                58.057903289794922,
                58.059333801269531,
                58.065204620361328,
                58.067413330078125,
                58.069332122802734,
                58.074127197265625,
                58.07501220703125,
                58.078258514404297,
                58.086761474609375,
                58.098556518554688,
                58.101760864257813,
                58.108245849609375,
                58.120071411132813,
                58.129856109619141,
                58.134475708007813,
                58.138313293457031,
                58.145347595214844,
                58.159526824951172,
                58.166446685791016,
                58.171886444091797,
                58.175712585449219,
                58.180233001708984,
                58.1885986328125,
                58.191905975341797,
                58.194175720214844,
                58.198398590087891,
                58.201305389404297,
                58.204402923583984,
                58.207897186279297,
                58.213851928710938,
                58.223140716552734,
                58.233192443847656,
                58.234443664550781,
                58.236339569091797,
                58.24078369140625,
                58.242622375488281,
                58.2520751953125,
                58.259761810302734,
                58.262245178222656,
                58.264930725097656,
                58.266258239746094,
                58.267227172851563,
                58.269142150878906,
                58.278732299804688,
                58.280288696289063,
                58.283615112304688,
                58.288032531738281,
                58.291595458984375,
                58.293190002441406,
                58.300193786621094,
                58.303375244140625,
                58.307655334472656,
                58.309974670410156,
                58.319091796875,
                58.320808410644531,
                58.323493957519531,
                58.330589294433594,
                58.336872100830078,
                58.344039916992188,
                58.351142883300781,
                58.356193542480469,
                58.358821868896484,
                58.360748291015625,
                58.3673095703125,
                58.376251220703125,
                58.381767272949219,
                58.38507080078125,
                58.390220642089844,
                58.392555236816406,
                58.395057678222656,
                58.398944854736328,
                58.404457092285156,
                58.411964416503906,
                58.414608001708984,
                58.42095947265625,
                58.421981811523438,
                58.425460815429688,
                58.429176330566406,
                58.435173034667969,
                58.439544677734375,
                58.4449462890625,
                58.452178955078125,
                58.459159851074219,
                58.462837219238281,
                58.473052978515625,
                58.478309631347656,
                58.480701446533203,
                58.483711242675781,
                58.491687774658203,
                58.499557495117188,
                58.501930236816406,
                58.506011962890625,
                58.51654052734375,
                58.528316497802734,
                58.537612915039063,
                58.543281555175781,
                58.546676635742188,
                58.551994323730469,
                58.565219879150391,
                58.568611145019531,
                58.572799682617188,
                58.576576232910156,
                58.579071044921875,
                58.580223083496094,
                58.583362579345703,
                58.595321655273438,
                58.600357055664063,
                58.605087280273438,
                58.611839294433594,
                58.618240356445313,
                58.619274139404297,
                58.621295928955078,
                58.626743316650391,
                58.6400146484375,
                58.649959564208984,
                58.662124633789063,
                58.666305541992188,
                58.672775268554688,
                58.676990509033203,
                58.680210113525391,
                58.685943603515625,
                58.688072204589844,
                58.689826965332031,
                58.695297241210938,
                58.700408935546875,
                58.722362518310547,
                58.724567413330078,
                58.72930908203125,
                58.752044677734375,
                58.78143310546875,
                58.788650512695313,
                58.799880981445313,
                58.805164337158203,
                58.811302185058594,
                58.816715240478516,
                58.8182373046875,
                58.8302001953125,
                58.832759857177734,
                58.8563232421875,
                58.860000610351563,
                58.86572265625,
                58.8697509765625,
                58.887065887451172,
                58.892333984375,
                58.904891967773438,
                58.910942077636719,
                58.92462158203125,
                58.930122375488281,
                58.949924468994141,
                58.963710784912109,
                58.982177734375,
                58.990455627441406,
                59.008831024169922,
                59.018745422363281,
                59.038185119628906,
                59.043437957763672,
                59.0994873046875,
                59.142551422119141,
                59.160694122314453,
                59.165756225585938
              ],
            "feature_id":"water_flow",
            "feature_index":2,
            "flat_feature_index":2,
            "has_nans":false,
            "nan_value_treatment":"AsIs"
          }
        ]
    },
  "model_info":
    {
      "catboost_version_info":"Git info:\n    Commit: f903943a8cd903a117c3d3c8421cc72d3910562c\n    Branch: tags/v1.2.7\n    Author: akhropov <akhropov@yandex-team.com>\n    Summary: CatBoost Release 1.2.7. e8fed88cb7baa390f4cfb62bcb925f84a3f073a7\n    git-svn info:\n    Last Changed Rev: 9293085\n\nOther info:\n    Build by: Unknown user\n    Top src dir: /src/catboost\n",
      "class_params":
        {
          "class_label_type":"Integer",
          "class_names":
            [
              0,
              1
            ],
          "class_to_label":
            [
              0,
              1
            ],
          "classes_count":0
        },
      "model_guid":"2f51000e-d61e7c7b-758f7b05-95d83a22",
      "output_options":"{\"name\":\"experiment\",\"verbose\":0,\"test_error_log\":\"test_error.tsv\",\"json_log\":\"catboost_training.json\",\"result_model_file\":\"model\",\"roc_file\":\"\",\"eval_file_name\":\"\",\"use_best_model\":false,\"allow_writing_files\":true,\"prediction_type\":[\"RawFormulaVal\"],\"fstr_internal_file\":\"\",\"output_columns\":[\"SampleId\",\"RawFormulaVal\",\"Label\"],\"snapshot_interval\":600,\"time_left_log\":\"time_left.tsv\",\"fstr_type\":\"FeatureImportance\",\"profile_log\":\"catboost_profile.log\",\"train_dir\":\"catboost_info\",\"learn_error_log\":\"learn_error.tsv\",\"training_options_file\":\"\",\"snapshot_file\":\"experiment.cbsnapshot\",\"save_snapshot\":false,\"model_format\":[\"CatboostBinary\"],\"final_feature_calcer_computation_mode\":\"Default\",\"metric_period\":1,\"output_borders\":\"\",\"final_ctr_computation_mode\":\"Default\",\"best_model_min_trees\":1,\"fstr_regular_file\":\"\"}",
      "params":
        {
          "boosting_options":
            {
              "approx_on_full_history":false,
              "boost_from_average":false,
              "boosting_type":"Plain",
              "fold_len_multiplier":2,
              "fold_permutation_block":0,
              "iterations":1000,
              "learning_rate":0.0077410000376403332,
              "model_shrink_mode":"Constant",
              "model_shrink_rate":0,
              "od_config":
                {
                  "stop_pvalue":0,
                  "type":"None",
                  "wait_iterations":20
                },
              "permutation_count":4,
              "posterior_sampling":false
            },
          "cat_feature_params":
            {
              "combinations_ctrs":
                [
                  {
                    "ctr_binarization":
                      {
                        "border_count":15,
                        "border_type":"Uniform"
                      },
                    "ctr_type":"Borders",
                    "prior_estimation":"No",
                    "priors":
                      [
                        [
                          0,
                          1
                        ],
                        [
                          0.5,
                          1
                        ],
                        [
                          1,
                          1
                        ]
                      ],
                    "target_binarization":
                      {
                        "border_count":1,
                        "border_type":"MinEntropy"
                      }
                  },
                  {
                    "ctr_binarization":
                      {
                        "border_count":15,
                        "border_type":"Uniform"
                      },
                    "ctr_type":"Counter",
                    "prior_estimation":"No",
                    "priors":
                      [
                        [
                          0,
                          1
                        ]
                      ]
                  }
                ],
              "counter_calc_method":"SkipTest",
              "ctr_leaf_count_limit":18446744073709551615,
              "max_ctr_complexity":4,
              "one_hot_max_size":2,
              "per_feature_ctrs":
                {
                },
              "simple_ctrs":
                [
                  {
                    "ctr_binarization":
                      {
                        "border_count":15,
                        "border_type":"Uniform"
                      },
                    "ctr_type":"Borders",
                    "prior_estimation":"No",
                    "priors":
                      [
                        [
                          0,
                          1
                        ],
                        [
                          0.5,
                          1
                        ],
                        [
                          1,
                          1
                        ]
                      ],
                    "target_binarization":
                      {
                        "border_count":1,
                        "border_type":"MinEntropy"
                      }
                  },
                  {
                    "ctr_binarization":
                      {
                        "border_count":15,
                        "border_type":"Uniform"
                      },
                    "ctr_type":"Counter",
                    "prior_estimation":"No",
                    "priors":
                      [
                        [
                          0,
                          1
                        ]
                      ]
                  }
                ],
              "store_all_simple_ctr":false,
              "target_binarization":
                {
                  "border_count":1,
                  "border_type":"MinEntropy"
                }
            },
          "data_processing_options":
            {
              "allow_const_label":false,
              "auto_class_weights":"None",
              "class_names":
                [
                  0,
                  1
                ],
              "class_weights":
                [
                ],
              "classes_count":0,
              "dev_default_value_fraction_for_sparse":0.82999998331069946,
              "dev_group_features":false,
              "dev_leafwise_scoring":false,
              "dev_sparse_array_indexing":"Indices",
              "embedding_processing_options":
                {
                  "embedding_processing":
                    {
                      "default":
                        [
                          "LDA",
                          "KNN"
                        ]
                    }
                },
              "eval_fraction":0,
              "float_features_binarization":
                {
                  "border_count":254,
                  "border_type":"GreedyLogSum",
                  "dev_max_subset_size_for_build_borders":200000,
                  "nan_mode":"Min"
                },
              "force_unit_auto_pair_weights":false,
              "has_time":false,
              "ignored_features":
                [
                ],
              "per_float_feature_quantization":
                {
                },
              "target_border":null,
              "text_processing_options":
                {
                  "dictionaries":
                    [
                      {
                        "dictionary_id":"BiGram",
                        "end_of_sentence_token_policy":"Skip",
                        "end_of_word_token_policy":"Insert",
                        "gram_order":"2",
                        "max_dictionary_size":"50000",
                        "occurrence_lower_bound":"1",
                        "skip_step":"0",
                        "start_token_id":"0",
                        "token_level_type":"Word"
                      },
                      {
                        "dictionary_id":"Word",
                        "end_of_sentence_token_policy":"Skip",
                        "end_of_word_token_policy":"Insert",
                        "gram_order":"1",
                        "max_dictionary_size":"50000",
                        "occurrence_lower_bound":"1",
                        "skip_step":"0",
                        "start_token_id":"0",
                        "token_level_type":"Word"
                      }
                    ],
                  "feature_processing":
                    {
                      "default":
                        [
                          {
                            "dictionaries_names":
                              [
                                "BiGram",
                                "Word"
                              ],
                            "feature_calcers":
                              [
                                "BoW"
                              ],
                            "tokenizers_names":
                              [
                                "Space"
                              ]
                          },
                          {
                            "dictionaries_names":
                              [
                                "Word"
                              ],
                            "feature_calcers":
                              [
                                "NaiveBayes"
                              ],
                            "tokenizers_names":
                              [
                                "Space"
                              ]
                          }
                        ]
                    },
                  "tokenizers":
                    [
                      {
                        "delimiter":" ",
                        "languages":
                          [
                          ],
                        "lemmatizing":"0",
                        "lowercasing":"0",
                        "number_process_policy":"LeaveAsIs",
                        "number_token":"🔢",
                        "separator_type":"ByDelimiter",
                        "skip_empty":"1",
                        "split_by_set":"0",
                        "subtokens_policy":"SingleToken",
                        "token_types":
                          [
                            "Number",
                            "Unknown",
                            "Word"
                          ],
                        "tokenizer_id":"Space"
                      }
                    ]
                }
            },
          "detailed_profile":false,
          "flat_params":
            {
              "loss_function":"Logloss",
              "verbose":0
            },
          "logging_level":"Silent",
          "loss_function":
            {
              "params":
                {
                },
              "type":"Logloss"
            },
          "metadata":
            {
            },
          "metrics":
            {
              "custom_metrics":
                [
                ],
              "eval_metric":
                {
                  "params":
                    {
                    },
                  "type":"Logloss"
                },
              "objective_metric":
                {
                  "params":
                    {
                    },
                  "type":"Logloss"
                }
            },
          "pool_metainfo_options":
            {
              "tags":
                {
                }
            },
          "random_seed":0,
          "system_options":
            {
              "file_with_hosts":"hosts.txt",
              "node_port":0,
              "node_type":"SingleHost",
              "thread_count":2,
              "used_ram_limit":""
            },
          "task_type":"CPU",
          "tree_learner_options":
            {
              "bayesian_matrix_reg":0.10000000149011612,
              "bootstrap":
                {
                  "mvs_reg":null,
                  "subsample":0.80000001192092896,
                  "type":"MVS"
                },
              "depth":6,
              "dev_efb_max_buckets":1024,
              "dev_leafwise_approxes":false,
              "dev_score_calc_obj_block_size":5000000,
              "grow_policy":"SymmetricTree",
              "l2_leaf_reg":3,
              "leaf_estimation_backtracking":"AnyImprovement",
              "leaf_estimation_iterations":10,
              "leaf_estimation_method":"Newton",
              "max_leaves":64,
              "min_data_in_leaf":1,
              "model_size_reg":0.5,
              "monotone_constraints":
                {
                },
              "penalties":
                {
                  "feature_weights":
                    {
                    },
                  "first_feature_use_penalties":
                    {
                    },
                  "penalties_coefficient":1,
                  "per_object_feature_penalties":
                    {
                    }
                },
              "random_score_type":"NormalWithModelSizeDecrease",
              "random_strength":1,
              "rsm":1,
              "sampling_frequency":"PerTree",
              "score_function":"Cosine",
              "sparse_features_conflict_fraction":0
            }
        },
      "train_finish_time":"2024-12-13T02:08:17Z",
      "training":"{\"metrics\":{\"learn_best_error\":{\"Logloss\":0.2329551875591278},\"test_metrics_history\":[],\"learn_metrics_history\":[{\"Logloss\":0.686363935470581},{\"Logloss\":0.6813232898712158},{\"Logloss\":0.6757172346115112},{\"Logloss\":0.6715078353881836},{\"Logloss\":0.6673880815505981},{\"Logloss\":0.6618084907531738},{\"Logloss\":0.656765878200531},{\"Logloss\":0.6520875096321106},{\"Logloss\":0.6479898691177368},{\"Logloss\":0.6436758041381836},{\"Logloss\":0.640573263168335},{\"Logloss\":0.635825514793396},{\"Logloss\":0.6315631866455078},{\"Logloss\":0.6271116733551025},{\"Logloss\":0.6230514049530029},{\"Logloss\":0.6182865500450134},{\"Logloss\":0.6149058938026428},{\"Logloss\":0.6113863587379456},{\"Logloss\":0.6076672077178955},{\"Logloss\":0.603377640247345},{\"Logloss\":0.5994953513145447},{\"Logloss\":0.5956516861915588},{\"Logloss\":0.5915393829345703},{\"Logloss\":0.5879330635070801},{\"Logloss\":0.585112988948822},{\"Logloss\":0.5810283422470093},{\"Logloss\":0.5782648921012878},{\"Logloss\":0.5753109455108643},{\"Logloss\":0.5717581510543823},{\"Logloss\":0.5688434839248657},{\"Logloss\":0.56629478931427},{\"Logloss\":0.5625901222229004},{\"Logloss\":0.5592898726463318},{\"Logloss\":0.5559331774711609},{\"Logloss\":0.5539228916168213},{\"Logloss\":0.550493597984314},{\"Logloss\":0.547235369682312},{\"Logloss\":0.54473477602005},{\"Logloss\":0.541980504989624},{\"Logloss\":0.5394168496131897},{\"Logloss\":0.5371401309967041},{\"Logloss\":0.5343592166900635},{\"Logloss\":0.5319039225578308},{\"Logloss\":0.5290586352348328},{\"Logloss\":0.5264031887054443},{\"Logloss\":0.5230823159217834},{\"Logloss\":0.5213723182678223},{\"Logloss\":0.5186771750450134},{\"Logloss\":0.5161850452423096},{\"Logloss\":0.5143136978149414},{\"Logloss\":0.5117895603179932},{\"Logloss\":0.5092386603355408},{\"Logloss\":0.5070945024490356},{\"Logloss\":0.504533588886261},{\"Logloss\":0.5029603242874146},{\"Logloss\":0.5005115270614624},{\"Logloss\":0.4981839656829834},{\"Logloss\":0.49626415967941284},{\"Logloss\":0.4948817789554596},{\"Logloss\":0.49261510372161865},{\"Logloss\":0.4908107817173004},{\"Logloss\":0.48913729190826416},{\"Logloss\":0.4878584146499634},{\"Logloss\":0.48584699630737305},{\"Logloss\":0.4842105507850647},{\"Logloss\":0.4831094443798065},{\"Logloss\":0.48185136914253235},{\"Logloss\":0.48052549362182617},{\"Logloss\":0.47903281450271606},{\"Logloss\":0.4779765009880066},{\"Logloss\":0.47622406482696533},{\"Logloss\":0.47437557578086853},{\"Logloss\":0.4727146625518799},{\"Logloss\":0.4711340069770813},{\"Logloss\":0.4687403440475464},{\"Logloss\":0.46725165843963623},{\"Logloss\":0.4660877585411072},{\"Logloss\":0.4649815857410431},{\"Logloss\":0.4631648659706116},{\"Logloss\":0.4615846872329712},{\"Logloss\":0.4598950147628784},{\"Logloss\":0.4585282504558563},{\"Logloss\":0.45747172832489014},{\"Logloss\":0.45626309514045715},{\"Logloss\":0.4545411467552185},{\"Logloss\":0.4535382390022278},{\"Logloss\":0.4521024227142334},{\"Logloss\":0.4510756731033325},{\"Logloss\":0.449924111366272},{\"Logloss\":0.44893547892570496},{\"Logloss\":0.44787153601646423},{\"Logloss\":0.44677191972732544},{\"Logloss\":0.4459848999977112},{\"Logloss\":0.4448072910308838},{\"Logloss\":0.4439353942871094},{\"Logloss\":0.44264650344848633},{\"Logloss\":0.4413447976112366},{\"Logloss\":0.44003593921661377},{\"Logloss\":0.4389144778251648},{\"Logloss\":0.43755632638931274},{\"Logloss\":0.4367597699165344},{\"Logloss\":0.4357167184352875},{\"Logloss\":0.43460583686828613},{\"Logloss\":0.43360742926597595},{\"Logloss\":0.43261030316352844},{\"Logloss\":0.431626558303833},{\"Logloss\":0.43051645159721375},{\"Logloss\":0.42953938245773315},{\"Logloss\":0.42842596769332886},{\"Logloss\":0.42737871408462524},{\"Logloss\":0.4264695644378662},{\"Logloss\":0.425894558429718},{\"Logloss\":0.42502719163894653},{\"Logloss\":0.4241645336151123},{\"Logloss\":0.42332664132118225},{\"Logloss\":0.4223010241985321},{\"Logloss\":0.4216300845146179},{\"Logloss\":0.42096537351608276},{\"Logloss\":0.4200654625892639},{\"Logloss\":0.41916346549987793},{\"Logloss\":0.41822701692581177},{\"Logloss\":0.41747963428497314},{\"Logloss\":0.416726678609848},{\"Logloss\":0.415288507938385},{\"Logloss\":0.4143482446670532},{\"Logloss\":0.41372621059417725},{\"Logloss\":0.41277819871902466},{\"Logloss\":0.4120637774467468},{\"Logloss\":0.41105151176452637},{\"Logloss\":0.41035404801368713},{\"Logloss\":0.4096450209617615},{\"Logloss\":0.40893155336380005},{\"Logloss\":0.4083085060119629},{\"Logloss\":0.407483845949173},{\"Logloss\":0.40629318356513977},{\"Logloss\":0.4056520164012909},{\"Logloss\":0.4052043557167053},{\"Logloss\":0.40420961380004883},{\"Logloss\":0.4030255973339081},{\"Logloss\":0.4026504158973694},{\"Logloss\":0.4022958278656006},{\"Logloss\":0.401677668094635},{\"Logloss\":0.40129196643829346},{\"Logloss\":0.4010019898414612},{\"Logloss\":0.4000953137874603},{\"Logloss\":0.39901384711265564},{\"Logloss\":0.3984362483024597},{\"Logloss\":0.3976365327835083},{\"Logloss\":0.3969312906265259},{\"Logloss\":0.39632055163383484},{\"Logloss\":0.39578482508659363},{\"Logloss\":0.39518633484840393},{\"Logloss\":0.3943805396556854},{\"Logloss\":0.39403772354125977},{\"Logloss\":0.39333537220954895},{\"Logloss\":0.3929100036621094},{\"Logloss\":0.3923916518688202},{\"Logloss\":0.3916415870189667},{\"Logloss\":0.39083707332611084},{\"Logloss\":0.3903103470802307},{\"Logloss\":0.38961589336395264},{\"Logloss\":0.3892489969730377},{\"Logloss\":0.38882219791412354},{\"Logloss\":0.38837766647338867},{\"Logloss\":0.3880465030670166},{\"Logloss\":0.3875981867313385},{\"Logloss\":0.38711512088775635},{\"Logloss\":0.3864511549472809},{\"Logloss\":0.3858505189418793},{\"Logloss\":0.38542255759239197},{\"Logloss\":0.38490116596221924},{\"Logloss\":0.384443074464798},{\"Logloss\":0.383760929107666},{\"Logloss\":0.3834739029407501},{\"Logloss\":0.3830558657646179},{\"Logloss\":0.38269931077957153},{\"Logloss\":0.3819742798805237},{\"Logloss\":0.38118040561676025},{\"Logloss\":0.38053423166275024},{\"Logloss\":0.37992408871650696},{\"Logloss\":0.379187673330307},{\"Logloss\":0.37878352403640747},{\"Logloss\":0.37810230255126953},{\"Logloss\":0.3777698576450348},{\"Logloss\":0.3773536682128906},{\"Logloss\":0.3767603039741516},{\"Logloss\":0.3763994574546814},{\"Logloss\":0.37604668736457825},{\"Logloss\":0.37581461668014526},{\"Logloss\":0.37531155347824097},{\"Logloss\":0.37491264939308167},{\"Logloss\":0.37434178590774536},{\"Logloss\":0.37401658296585083},{\"Logloss\":0.37380507588386536},{\"Logloss\":0.37325519323349},{\"Logloss\":0.3729986548423767},{\"Logloss\":0.37264806032180786},{\"Logloss\":0.37228909134864807},{\"Logloss\":0.37193143367767334},{\"Logloss\":0.3716345727443695},{\"Logloss\":0.3712345063686371},{\"Logloss\":0.37086135149002075},{\"Logloss\":0.3704293370246887},{\"Logloss\":0.3699752688407898},{\"Logloss\":0.369587242603302},{\"Logloss\":0.36922821402549744},{\"Logloss\":0.368794322013855},{\"Logloss\":0.3683794140815735},{\"Logloss\":0.3680395483970642},{\"Logloss\":0.36773237586021423},{\"Logloss\":0.36735907196998596},{\"Logloss\":0.36699849367141724},{\"Logloss\":0.36656638979911804},{\"Logloss\":0.3659784197807312},{\"Logloss\":0.36573606729507446},{\"Logloss\":0.36551815271377563},{\"Logloss\":0.36499884724617004},{\"Logloss\":0.36468976736068726},{\"Logloss\":0.36432328820228577},{\"Logloss\":0.3640376627445221},{\"Logloss\":0.36374038457870483},{\"Logloss\":0.36332201957702637},{\"Logloss\":0.3628924489021301},{\"Logloss\":0.36253073811531067},{\"Logloss\":0.36210060119628906},{\"Logloss\":0.3618871867656708},{\"Logloss\":0.361563116312027},{\"Logloss\":0.36102500557899475},{\"Logloss\":0.3606495261192322},{\"Logloss\":0.3603140413761139},{\"Logloss\":0.36012956500053406},{\"Logloss\":0.35995596647262573},{\"Logloss\":0.3595207631587982},{\"Logloss\":0.35889875888824463},{\"Logloss\":0.35862112045288086},{\"Logloss\":0.3582609295845032},{\"Logloss\":0.35791054368019104},{\"Logloss\":0.3575337529182434},{\"Logloss\":0.357296884059906},{\"Logloss\":0.3568747043609619},{\"Logloss\":0.3565159738063812},{\"Logloss\":0.35628941655158997},{\"Logloss\":0.3560226559638977},{\"Logloss\":0.35571715235710144},{\"Logloss\":0.3555254340171814},{\"Logloss\":0.35512250661849976},{\"Logloss\":0.3548542559146881},{\"Logloss\":0.35470840334892273},{\"Logloss\":0.35426080226898193},{\"Logloss\":0.35397326946258545},{\"Logloss\":0.3537585437297821},{\"Logloss\":0.3533783555030823},{\"Logloss\":0.35309046506881714},{\"Logloss\":0.3528585731983185},{\"Logloss\":0.3524470627307892},{\"Logloss\":0.3520565629005432},{\"Logloss\":0.3518730103969574},{\"Logloss\":0.35150325298309326},{\"Logloss\":0.351087749004364},{\"Logloss\":0.3509626090526581},{\"Logloss\":0.3507784903049469},{\"Logloss\":0.35050293803215027},{\"Logloss\":0.3501336872577667},{\"Logloss\":0.34982040524482727},{\"Logloss\":0.3493344783782959},{\"Logloss\":0.349082887172699},{\"Logloss\":0.34863531589508057},{\"Logloss\":0.3484126925468445},{\"Logloss\":0.34802019596099854},{\"Logloss\":0.34780293703079224},{\"Logloss\":0.34734028577804565},{\"Logloss\":0.3469622731208801},{\"Logloss\":0.3465917110443115},{\"Logloss\":0.346432089805603},{\"Logloss\":0.34624195098876953},{\"Logloss\":0.34590986371040344},{\"Logloss\":0.3456634283065796},{\"Logloss\":0.3454943001270294},{\"Logloss\":0.3453461825847626},{\"Logloss\":0.34502193331718445},{\"Logloss\":0.344678670167923},{\"Logloss\":0.3444210886955261},{\"Logloss\":0.34408557415008545},{\"Logloss\":0.34376823902130127},{\"Logloss\":0.3436218500137329},{\"Logloss\":0.34332606196403503},{\"Logloss\":0.3430899381637573},{\"Logloss\":0.34287917613983154},{\"Logloss\":0.3425626754760742},{\"Logloss\":0.3423383831977844},{\"Logloss\":0.3422083556652069},{\"Logloss\":0.3419264256954193},{\"Logloss\":0.34152522683143616},{\"Logloss\":0.34117889404296875},{\"Logloss\":0.3410474359989166},{\"Logloss\":0.34090617299079895},{\"Logloss\":0.3407280743122101},{\"Logloss\":0.34053942561149597},{\"Logloss\":0.3404088616371155},{\"Logloss\":0.3400741219520569},{\"Logloss\":0.33977967500686646},{\"Logloss\":0.33950647711753845},{\"Logloss\":0.339192271232605},{\"Logloss\":0.338988721370697},{\"Logloss\":0.3388223648071289},{\"Logloss\":0.3386383652687073},{\"Logloss\":0.33850687742233276},{\"Logloss\":0.3383174240589142},{\"Logloss\":0.3380337357521057},{\"Logloss\":0.33777540922164917},{\"Logloss\":0.33762043714523315},{\"Logloss\":0.33738428354263306},{\"Logloss\":0.3370856046676636},{\"Logloss\":0.33663246035575867},{\"Logloss\":0.33629798889160156},{\"Logloss\":0.3360389471054077},{\"Logloss\":0.33578386902809143},{\"Logloss\":0.3355438709259033},{\"Logloss\":0.3354012668132782},{\"Logloss\":0.33508169651031494},{\"Logloss\":0.334936261177063},{\"Logloss\":0.3347538411617279},{\"Logloss\":0.3345370292663574},{\"Logloss\":0.33423638343811035},{\"Logloss\":0.3340194821357727},{\"Logloss\":0.33372193574905396},{\"Logloss\":0.3335897922515869},{\"Logloss\":0.33326461911201477},{\"Logloss\":0.3328956961631775},{\"Logloss\":0.3326566517353058},{\"Logloss\":0.332427978515625},{\"Logloss\":0.3321372866630554},{\"Logloss\":0.33187952637672424},{\"Logloss\":0.33133065700531006},{\"Logloss\":0.331163227558136},{\"Logloss\":0.33097541332244873},{\"Logloss\":0.3307434916496277},{\"Logloss\":0.3306282162666321},{\"Logloss\":0.33038145303726196},{\"Logloss\":0.32990485429763794},{\"Logloss\":0.3297436237335205},{\"Logloss\":0.3296331763267517},{\"Logloss\":0.32938456535339355},{\"Logloss\":0.3289531469345093},{\"Logloss\":0.3288205862045288},{\"Logloss\":0.3286968171596527},{\"Logloss\":0.3284590542316437},{\"Logloss\":0.32813921570777893},{\"Logloss\":0.32790452241897583},{\"Logloss\":0.3274872303009033},{\"Logloss\":0.3273299038410187},{\"Logloss\":0.3272027373313904},{\"Logloss\":0.3269748389720917},{\"Logloss\":0.3267472982406616},{\"Logloss\":0.326432466506958},{\"Logloss\":0.3260849416255951},{\"Logloss\":0.3257218599319458},{\"Logloss\":0.32549405097961426},{\"Logloss\":0.32521548867225647},{\"Logloss\":0.32508349418640137},{\"Logloss\":0.3248237073421478},{\"Logloss\":0.32450056076049805},{\"Logloss\":0.32434728741645813},{\"Logloss\":0.3242188096046448},{\"Logloss\":0.3240392208099365},{\"Logloss\":0.32385843992233276},{\"Logloss\":0.32358595728874207},{\"Logloss\":0.3234384059906006},{\"Logloss\":0.323130339384079},{\"Logloss\":0.32290688157081604},{\"Logloss\":0.32271116971969604},{\"Logloss\":0.3225805163383484},{\"Logloss\":0.3224497437477112},{\"Logloss\":0.322258859872818},{\"Logloss\":0.32206639647483826},{\"Logloss\":0.32149770855903625},{\"Logloss\":0.32124704122543335},{\"Logloss\":0.3211137056350708},{\"Logloss\":0.32087764143943787},{\"Logloss\":0.32062411308288574},{\"Logloss\":0.3202344477176666},{\"Logloss\":0.3201027810573578},{\"Logloss\":0.3199511766433716},{\"Logloss\":0.3198000490665436},{\"Logloss\":0.3195125162601471},{\"Logloss\":0.31932732462882996},{\"Logloss\":0.3190765082836151},{\"Logloss\":0.31887176632881165},{\"Logloss\":0.3186357021331787},{\"Logloss\":0.31840935349464417},{\"Logloss\":0.31830719113349915},{\"Logloss\":0.31790590286254883},{\"Logloss\":0.3178098201751709},{\"Logloss\":0.31769299507141113},{\"Logloss\":0.3176008462905884},{\"Logloss\":0.31750601530075073},{\"Logloss\":0.31706032156944275},{\"Logloss\":0.31693652272224426},{\"Logloss\":0.3167531192302704},{\"Logloss\":0.31659138202667236},{\"Logloss\":0.3163582682609558},{\"Logloss\":0.3161012530326843},{\"Logloss\":0.31585800647735596},{\"Logloss\":0.3156423270702362},{\"Logloss\":0.3154674172401428},{\"Logloss\":0.31527188420295715},{\"Logloss\":0.3151169419288635},{\"Logloss\":0.31490063667297363},{\"Logloss\":0.314578652381897},{\"Logloss\":0.31443101167678833},{\"Logloss\":0.31420621275901794},{\"Logloss\":0.3141080141067505},{\"Logloss\":0.3139417767524719},{\"Logloss\":0.31368839740753174},{\"Logloss\":0.31347033381462097},{\"Logloss\":0.31325408816337585},{\"Logloss\":0.3131810128688812},{\"Logloss\":0.312970906496048},{\"Logloss\":0.31278741359710693},{\"Logloss\":0.312599778175354},{\"Logloss\":0.31251975893974304},{\"Logloss\":0.3123815059661865},{\"Logloss\":0.31201931834220886},{\"Logloss\":0.31180861592292786},{\"Logloss\":0.3116692304611206},{\"Logloss\":0.3115014433860779},{\"Logloss\":0.3113171458244324},{\"Logloss\":0.3110959231853485},{\"Logloss\":0.3109608292579651},{\"Logloss\":0.3107619881629944},{\"Logloss\":0.31049400568008423},{\"Logloss\":0.31034043431282043},{\"Logloss\":0.31023263931274414},{\"Logloss\":0.3100445866584778},{\"Logloss\":0.3098859190940857},{\"Logloss\":0.30964308977127075},{\"Logloss\":0.3095332682132721},{\"Logloss\":0.3090049624443054},{\"Logloss\":0.3089155852794647},{\"Logloss\":0.3087286949157715},{\"Logloss\":0.3085560202598572},{\"Logloss\":0.30835583806037903},{\"Logloss\":0.30806127190589905},{\"Logloss\":0.3079202175140381},{\"Logloss\":0.3078247904777527},{\"Logloss\":0.3076246976852417},{\"Logloss\":0.3074429929256439},{\"Logloss\":0.30726611614227295},{\"Logloss\":0.3071436285972595},{\"Logloss\":0.3069192171096802},{\"Logloss\":0.3068084120750427},{\"Logloss\":0.30664288997650146},{\"Logloss\":0.30642300844192505},{\"Logloss\":0.30631715059280396},{\"Logloss\":0.3061310648918152},{\"Logloss\":0.3058956563472748},{\"Logloss\":0.30560731887817383},{\"Logloss\":0.3054507374763489},{\"Logloss\":0.30507922172546387},{\"Logloss\":0.30500364303588867},{\"Logloss\":0.304826557636261},{\"Logloss\":0.30469632148742676},{\"Logloss\":0.30450016260147095},{\"Logloss\":0.30432644486427307},{\"Logloss\":0.3042095899581909},{\"Logloss\":0.30408143997192383},{\"Logloss\":0.3037204146385193},{\"Logloss\":0.30353230237960815},{\"Logloss\":0.30334317684173584},{\"Logloss\":0.30320802330970764},{\"Logloss\":0.30308759212493896},{\"Logloss\":0.3028949201107025},{\"Logloss\":0.30271464586257935},{\"Logloss\":0.30253809690475464},{\"Logloss\":0.30234676599502563},{\"Logloss\":0.30214786529541016},{\"Logloss\":0.30200743675231934},{\"Logloss\":0.3017996549606323},{\"Logloss\":0.30164003372192383},{\"Logloss\":0.3015112578868866},{\"Logloss\":0.3012523651123047},{\"Logloss\":0.30109745264053345},{\"Logloss\":0.30095571279525757},{\"Logloss\":0.30085933208465576},{\"Logloss\":0.30073750019073486},{\"Logloss\":0.3006163239479065},{\"Logloss\":0.30060553550720215},{\"Logloss\":0.30042436718940735},{\"Logloss\":0.3002949357032776},{\"Logloss\":0.300085186958313},{\"Logloss\":0.29991352558135986},{\"Logloss\":0.29975247383117676},{\"Logloss\":0.29961079359054565},{\"Logloss\":0.2994609773159027},{\"Logloss\":0.2993243932723999},{\"Logloss\":0.2991293668746948},{\"Logloss\":0.29903584718704224},{\"Logloss\":0.2989419400691986},{\"Logloss\":0.298846572637558},{\"Logloss\":0.29864180088043213},{\"Logloss\":0.29853296279907227},{\"Logloss\":0.2982941269874573},{\"Logloss\":0.29808950424194336},{\"Logloss\":0.29795733094215393},{\"Logloss\":0.2977747917175293},{\"Logloss\":0.2975684106349945},{\"Logloss\":0.29745611548423767},{\"Logloss\":0.29721134901046753},{\"Logloss\":0.29699259996414185},{\"Logloss\":0.29686275124549866},{\"Logloss\":0.2966252863407135},{\"Logloss\":0.29651132225990295},{\"Logloss\":0.2963574230670929},{\"Logloss\":0.29629573225975037},{\"Logloss\":0.29616618156433105},{\"Logloss\":0.29605478048324585},{\"Logloss\":0.29579785466194153},{\"Logloss\":0.2956002950668335},{\"Logloss\":0.2954869270324707},{\"Logloss\":0.2953786253929138},{\"Logloss\":0.2952766418457031},{\"Logloss\":0.29512321949005127},{\"Logloss\":0.29488512873649597},{\"Logloss\":0.2947349548339844},{\"Logloss\":0.29451894760131836},{\"Logloss\":0.29437118768692017},{\"Logloss\":0.29414868354797363},{\"Logloss\":0.294064998626709},{\"Logloss\":0.2939816415309906},{\"Logloss\":0.29382359981536865},{\"Logloss\":0.2937290370464325},{\"Logloss\":0.2935965359210968},{\"Logloss\":0.29348212480545044},{\"Logloss\":0.29336732625961304},{\"Logloss\":0.2932354211807251},{\"Logloss\":0.29316073656082153},{\"Logloss\":0.2930356562137604},{\"Logloss\":0.2928345799446106},{\"Logloss\":0.29262882471084595},{\"Logloss\":0.2924371659755707},{\"Logloss\":0.2922348976135254},{\"Logloss\":0.2921740412712097},{\"Logloss\":0.2919515371322632},{\"Logloss\":0.2918623089790344},{\"Logloss\":0.29170435667037964},{\"Logloss\":0.29153284430503845},{\"Logloss\":0.29134851694107056},{\"Logloss\":0.2912399172782898},{\"Logloss\":0.29111960530281067},{\"Logloss\":0.29092180728912354},{\"Logloss\":0.29076433181762695},{\"Logloss\":0.29065465927124023},{\"Logloss\":0.2904821038246155},{\"Logloss\":0.2904173731803894},{\"Logloss\":0.2902117967605591},{\"Logloss\":0.2898480296134949},{\"Logloss\":0.28972360491752625},{\"Logloss\":0.28961747884750366},{\"Logloss\":0.2894313335418701},{\"Logloss\":0.2893020212650299},{\"Logloss\":0.2891736924648285},{\"Logloss\":0.2890644669532776},{\"Logloss\":0.2890090346336365},{\"Logloss\":0.2888210117816925},{\"Logloss\":0.28869447112083435},{\"Logloss\":0.28860732913017273},{\"Logloss\":0.28852301836013794},{\"Logloss\":0.28826823830604553},{\"Logloss\":0.28814268112182617},{\"Logloss\":0.287875771522522},{\"Logloss\":0.28778862953186035},{\"Logloss\":0.2876754701137543},{\"Logloss\":0.28744733333587646},{\"Logloss\":0.2873607277870178},{\"Logloss\":0.2872278690338135},{\"Logloss\":0.28712713718414307},{\"Logloss\":0.2868388295173645},{\"Logloss\":0.286556601524353},{\"Logloss\":0.28638172149658203},{\"Logloss\":0.2863302528858185},{\"Logloss\":0.2862103581428528},{\"Logloss\":0.28585267066955566},{\"Logloss\":0.28572410345077515},{\"Logloss\":0.2855280935764313},{\"Logloss\":0.2854267954826355},{\"Logloss\":0.2851473093032837},{\"Logloss\":0.28502219915390015},{\"Logloss\":0.2848542332649231},{\"Logloss\":0.28470802307128906},{\"Logloss\":0.2845000624656677},{\"Logloss\":0.2843858003616333},{\"Logloss\":0.2843034863471985},{\"Logloss\":0.2841572165489197},{\"Logloss\":0.2840557098388672},{\"Logloss\":0.2839587926864624},{\"Logloss\":0.28385958075523376},{\"Logloss\":0.28376275300979614},{\"Logloss\":0.28366488218307495},{\"Logloss\":0.2835206389427185},{\"Logloss\":0.28340503573417664},{\"Logloss\":0.2832680940628052},{\"Logloss\":0.2831575870513916},{\"Logloss\":0.28302475810050964},{\"Logloss\":0.2828041911125183},{\"Logloss\":0.28268980979919434},{\"Logloss\":0.28249692916870117},{\"Logloss\":0.28233402967453003},{\"Logloss\":0.28211405873298645},{\"Logloss\":0.28198665380477905},{\"Logloss\":0.2818293273448944},{\"Logloss\":0.28165650367736816},{\"Logloss\":0.2815266251564026},{\"Logloss\":0.28140634298324585},{\"Logloss\":0.2812143862247467},{\"Logloss\":0.281081885099411},{\"Logloss\":0.28099051117897034},{\"Logloss\":0.2806965708732605},{\"Logloss\":0.2805284857749939},{\"Logloss\":0.2804108262062073},{\"Logloss\":0.28021442890167236},{\"Logloss\":0.2800977826118469},{\"Logloss\":0.2799328863620758},{\"Logloss\":0.2798265814781189},{\"Logloss\":0.2795221209526062},{\"Logloss\":0.27927544713020325},{\"Logloss\":0.2790694534778595},{\"Logloss\":0.27889585494995117},{\"Logloss\":0.2787522077560425},{\"Logloss\":0.2785857319831848},{\"Logloss\":0.27848267555236816},{\"Logloss\":0.2784234881401062},{\"Logloss\":0.2782313823699951},{\"Logloss\":0.2781081795692444},{\"Logloss\":0.2779390215873718},{\"Logloss\":0.27773916721343994},{\"Logloss\":0.2776292562484741},{\"Logloss\":0.27755051851272583},{\"Logloss\":0.27743494510650635},{\"Logloss\":0.2773395776748657},{\"Logloss\":0.2769467532634735},{\"Logloss\":0.2767385244369507},{\"Logloss\":0.2765007019042969},{\"Logloss\":0.27636224031448364},{\"Logloss\":0.2762708067893982},{\"Logloss\":0.27610546350479126},{\"Logloss\":0.27597776055336},{\"Logloss\":0.2758947014808655},{\"Logloss\":0.27578288316726685},{\"Logloss\":0.2756619155406952},{\"Logloss\":0.2754916846752167},{\"Logloss\":0.27534839510917664},{\"Logloss\":0.2752612233161926},{\"Logloss\":0.27502208948135376},{\"Logloss\":0.2748395502567291},{\"Logloss\":0.27477723360061646},{\"Logloss\":0.27469056844711304},{\"Logloss\":0.274488240480423},{\"Logloss\":0.2743948996067047},{\"Logloss\":0.27426350116729736},{\"Logloss\":0.2741754949092865},{\"Logloss\":0.27395933866500854},{\"Logloss\":0.27378565073013306},{\"Logloss\":0.2736940383911133},{\"Logloss\":0.27353203296661377},{\"Logloss\":0.27336424589157104},{\"Logloss\":0.27321285009384155},{\"Logloss\":0.2731066942214966},{\"Logloss\":0.272938072681427},{\"Logloss\":0.2727738916873932},{\"Logloss\":0.272683322429657},{\"Logloss\":0.2725796699523926},{\"Logloss\":0.27241113781929016},{\"Logloss\":0.27223819494247437},{\"Logloss\":0.27217531204223633},{\"Logloss\":0.27208372950553894},{\"Logloss\":0.271904319524765},{\"Logloss\":0.27181240916252136},{\"Logloss\":0.2715798318386078},{\"Logloss\":0.2714484632015228},{\"Logloss\":0.27133557200431824},{\"Logloss\":0.2711528539657593},{\"Logloss\":0.27101895213127136},{\"Logloss\":0.27089908719062805},{\"Logloss\":0.27060937881469727},{\"Logloss\":0.2705225348472595},{\"Logloss\":0.2703433036804199},{\"Logloss\":0.27023953199386597},{\"Logloss\":0.27002355456352234},{\"Logloss\":0.26995307207107544},{\"Logloss\":0.2698684632778168},{\"Logloss\":0.26972001791000366},{\"Logloss\":0.26946863532066345},{\"Logloss\":0.26938754320144653},{\"Logloss\":0.26927387714385986},{\"Logloss\":0.26895076036453247},{\"Logloss\":0.2688372731208801},{\"Logloss\":0.2687143087387085},{\"Logloss\":0.2685825228691101},{\"Logloss\":0.2683296203613281},{\"Logloss\":0.26823747158050537},{\"Logloss\":0.268129825592041},{\"Logloss\":0.2678276300430298},{\"Logloss\":0.26775258779525757},{\"Logloss\":0.2676554322242737},{\"Logloss\":0.2675432860851288},{\"Logloss\":0.26738274097442627},{\"Logloss\":0.26721277832984924},{\"Logloss\":0.26701951026916504},{\"Logloss\":0.26693612337112427},{\"Logloss\":0.2667420506477356},{\"Logloss\":0.2666585445404053},{\"Logloss\":0.26654794812202454},{\"Logloss\":0.2664278745651245},{\"Logloss\":0.2663702368736267},{\"Logloss\":0.2662513256072998},{\"Logloss\":0.26603856682777405},{\"Logloss\":0.26591381430625916},{\"Logloss\":0.26578885316848755},{\"Logloss\":0.2656242251396179},{\"Logloss\":0.2655426859855652},{\"Logloss\":0.2653678357601166},{\"Logloss\":0.2652985751628876},{\"Logloss\":0.26525622606277466},{\"Logloss\":0.2650994658470154},{\"Logloss\":0.264914333820343},{\"Logloss\":0.2648184597492218},{\"Logloss\":0.2647393047809601},{\"Logloss\":0.2645733952522278},{\"Logloss\":0.2645120322704315},{\"Logloss\":0.2644200623035431},{\"Logloss\":0.26424622535705566},{\"Logloss\":0.26411139965057373},{\"Logloss\":0.2639593482017517},{\"Logloss\":0.26380372047424316},{\"Logloss\":0.26375314593315125},{\"Logloss\":0.26366397738456726},{\"Logloss\":0.2635796070098877},{\"Logloss\":0.2634182572364807},{\"Logloss\":0.26333701610565186},{\"Logloss\":0.26323211193084717},{\"Logloss\":0.263115257024765},{\"Logloss\":0.26305028796195984},{\"Logloss\":0.262870192527771},{\"Logloss\":0.2627493739128113},{\"Logloss\":0.26268789172172546},{\"Logloss\":0.2625393271446228},{\"Logloss\":0.26242268085479736},{\"Logloss\":0.26221776008605957},{\"Logloss\":0.26208072900772095},{\"Logloss\":0.26184913516044617},{\"Logloss\":0.261756956577301},{\"Logloss\":0.26166558265686035},{\"Logloss\":0.26148754358291626},{\"Logloss\":0.2613946795463562},{\"Logloss\":0.2612982988357544},{\"Logloss\":0.2611203193664551},{\"Logloss\":0.2610352635383606},{\"Logloss\":0.26077938079833984},{\"Logloss\":0.2606382369995117},{\"Logloss\":0.2605403661727905},{\"Logloss\":0.2604413628578186},{\"Logloss\":0.2603927254676819},{\"Logloss\":0.2602943181991577},{\"Logloss\":0.2602524757385254},{\"Logloss\":0.2601681351661682},{\"Logloss\":0.2599996328353882},{\"Logloss\":0.25992897152900696},{\"Logloss\":0.2597752809524536},{\"Logloss\":0.25961974263191223},{\"Logloss\":0.259499192237854},{\"Logloss\":0.2593865990638733},{\"Logloss\":0.259218692779541},{\"Logloss\":0.25903505086898804},{\"Logloss\":0.25893634557724},{\"Logloss\":0.2588871121406555},{\"Logloss\":0.2587743401527405},{\"Logloss\":0.25861895084381104},{\"Logloss\":0.258561372756958},{\"Logloss\":0.25846683979034424},{\"Logloss\":0.25833430886268616},{\"Logloss\":0.2582058310508728},{\"Logloss\":0.25812971591949463},{\"Logloss\":0.2579740583896637},{\"Logloss\":0.257853239774704},{\"Logloss\":0.2577283978462219},{\"Logloss\":0.2576005756855011},{\"Logloss\":0.2574883699417114},{\"Logloss\":0.257377028465271},{\"Logloss\":0.25719261169433594},{\"Logloss\":0.25700676441192627},{\"Logloss\":0.25690215826034546},{\"Logloss\":0.25675302743911743},{\"Logloss\":0.2565546929836273},{\"Logloss\":0.25646546483039856},{\"Logloss\":0.25634685158729553},{\"Logloss\":0.2562936246395111},{\"Logloss\":0.25621938705444336},{\"Logloss\":0.2561306357383728},{\"Logloss\":0.2560436725616455},{\"Logloss\":0.25599414110183716},{\"Logloss\":0.25591838359832764},{\"Logloss\":0.25577104091644287},{\"Logloss\":0.2555728554725647},{\"Logloss\":0.2553400993347168},{\"Logloss\":0.2551894783973694},{\"Logloss\":0.25511080026626587},{\"Logloss\":0.2550845444202423},{\"Logloss\":0.25488802790641785},{\"Logloss\":0.2547878921031952},{\"Logloss\":0.2546949088573456},{\"Logloss\":0.25440365076065063},{\"Logloss\":0.2542016804218292},{\"Logloss\":0.25413352251052856},{\"Logloss\":0.254064679145813},{\"Logloss\":0.2540179491043091},{\"Logloss\":0.2539467215538025},{\"Logloss\":0.2537728548049927},{\"Logloss\":0.25354912877082825},{\"Logloss\":0.2534114420413971},{\"Logloss\":0.25334158539772034},{\"Logloss\":0.2531675696372986},{\"Logloss\":0.25307497382164},{\"Logloss\":0.25293418765068054},{\"Logloss\":0.25275465846061707},{\"Logloss\":0.2525172233581543},{\"Logloss\":0.25244367122650146},{\"Logloss\":0.2523512840270996},{\"Logloss\":0.25226137042045593},{\"Logloss\":0.2521062195301056},{\"Logloss\":0.25194239616394043},{\"Logloss\":0.2517355978488922},{\"Logloss\":0.2515048384666443},{\"Logloss\":0.2513149380683899},{\"Logloss\":0.25116539001464844},{\"Logloss\":0.251054048538208},{\"Logloss\":0.2507863938808441},{\"Logloss\":0.2506749629974365},{\"Logloss\":0.25049257278442383},{\"Logloss\":0.2504054307937622},{\"Logloss\":0.2502641975879669},{\"Logloss\":0.2500779628753662},{\"Logloss\":0.24993804097175598},{\"Logloss\":0.24987268447875977},{\"Logloss\":0.24974504113197327},{\"Logloss\":0.24955302476882935},{\"Logloss\":0.2494327425956726},{\"Logloss\":0.24931812286376953},{\"Logloss\":0.24914269149303436},{\"Logloss\":0.24904781579971313},{\"Logloss\":0.2488614022731781},{\"Logloss\":0.24863487482070923},{\"Logloss\":0.24857163429260254},{\"Logloss\":0.24830207228660583},{\"Logloss\":0.24794049561023712},{\"Logloss\":0.24772441387176514},{\"Logloss\":0.2476440668106079},{\"Logloss\":0.24752680957317352},{\"Logloss\":0.24746978282928467},{\"Logloss\":0.24739152193069458},{\"Logloss\":0.24732142686843872},{\"Logloss\":0.24716956913471222},{\"Logloss\":0.2470766305923462},{\"Logloss\":0.2469693124294281},{\"Logloss\":0.24690337479114532},{\"Logloss\":0.24684542417526245},{\"Logloss\":0.24678167700767517},{\"Logloss\":0.24664004147052765},{\"Logloss\":0.24656739830970764},{\"Logloss\":0.24643592536449432},{\"Logloss\":0.24636444449424744},{\"Logloss\":0.24630270898342133},{\"Logloss\":0.24624618887901306},{\"Logloss\":0.2461722195148468},{\"Logloss\":0.24612748622894287},{\"Logloss\":0.24600405991077423},{\"Logloss\":0.24584944546222687},{\"Logloss\":0.24576565623283386},{\"Logloss\":0.24567687511444092},{\"Logloss\":0.24552634358406067},{\"Logloss\":0.24542635679244995},{\"Logloss\":0.24528467655181885},{\"Logloss\":0.24511364102363586},{\"Logloss\":0.24503093957901},{\"Logloss\":0.24491611123085022},{\"Logloss\":0.24475571513175964},{\"Logloss\":0.2446753978729248},{\"Logloss\":0.24460580945014954},{\"Logloss\":0.24450956284999847},{\"Logloss\":0.24441997706890106},{\"Logloss\":0.24433951079845428},{\"Logloss\":0.2442197948694229},{\"Logloss\":0.24415746331214905},{\"Logloss\":0.2439960539340973},{\"Logloss\":0.24391168355941772},{\"Logloss\":0.2436332404613495},{\"Logloss\":0.24341166019439697},{\"Logloss\":0.24330320954322815},{\"Logloss\":0.2432163506746292},{\"Logloss\":0.24315145611763},{\"Logloss\":0.24304433166980743},{\"Logloss\":0.24297821521759033},{\"Logloss\":0.2428666651248932},{\"Logloss\":0.24273015558719635},{\"Logloss\":0.24263575673103333},{\"Logloss\":0.24251508712768555},{\"Logloss\":0.24232131242752075},{\"Logloss\":0.24227294325828552},{\"Logloss\":0.24218691885471344},{\"Logloss\":0.24201901257038116},{\"Logloss\":0.2419562041759491},{\"Logloss\":0.24191652238368988},{\"Logloss\":0.24180172383785248},{\"Logloss\":0.24167028069496155},{\"Logloss\":0.24153579771518707},{\"Logloss\":0.2414499819278717},{\"Logloss\":0.24120934307575226},{\"Logloss\":0.2411547303199768},{\"Logloss\":0.2410232424736023},{\"Logloss\":0.24092070758342743},{\"Logloss\":0.24085861444473267},{\"Logloss\":0.240716814994812},{\"Logloss\":0.24063536524772644},{\"Logloss\":0.24056601524353027},{\"Logloss\":0.2404835820198059},{\"Logloss\":0.24043089151382446},{\"Logloss\":0.24034221470355988},{\"Logloss\":0.24023021757602692},{\"Logloss\":0.2400951385498047},{\"Logloss\":0.2400042712688446},{\"Logloss\":0.23993974924087524},{\"Logloss\":0.23988552391529083},{\"Logloss\":0.23974204063415527},{\"Logloss\":0.23969027400016785},{\"Logloss\":0.2395002245903015},{\"Logloss\":0.23940688371658325},{\"Logloss\":0.2393234223127365},{\"Logloss\":0.2390977293252945},{\"Logloss\":0.23894497752189636},{\"Logloss\":0.2387823611497879},{\"Logloss\":0.2387111634016037},{\"Logloss\":0.23863264918327332},{\"Logloss\":0.23851966857910156},{\"Logloss\":0.2384667992591858},{\"Logloss\":0.23837119340896606},{\"Logloss\":0.2382177859544754},{\"Logloss\":0.23816730082035065},{\"Logloss\":0.23801100254058838},{\"Logloss\":0.23792672157287598},{\"Logloss\":0.23777815699577332},{\"Logloss\":0.2376544326543808},{\"Logloss\":0.2375795543193817},{\"Logloss\":0.237550288438797},{\"Logloss\":0.23745153844356537},{\"Logloss\":0.23740075528621674},{\"Logloss\":0.23710472881793976},{\"Logloss\":0.23696018755435944},{\"Logloss\":0.23690403997898102},{\"Logloss\":0.236821249127388},{\"Logloss\":0.2366763949394226},{\"Logloss\":0.23657795786857605},{\"Logloss\":0.23654624819755554},{\"Logloss\":0.23644305765628815},{\"Logloss\":0.23634964227676392},{\"Logloss\":0.23626424372196198},{\"Logloss\":0.23620419204235077},{\"Logloss\":0.23614364862442017},{\"Logloss\":0.2360372245311737},{\"Logloss\":0.23595066368579865},{\"Logloss\":0.23583972454071045},{\"Logloss\":0.23570911586284637},{\"Logloss\":0.2356552928686142},{\"Logloss\":0.23555508255958557},{\"Logloss\":0.23532021045684814},{\"Logloss\":0.2352551519870758},{\"Logloss\":0.2351365089416504},{\"Logloss\":0.23506832122802734},{\"Logloss\":0.23502881824970245},{\"Logloss\":0.2348286211490631},{\"Logloss\":0.23474040627479553},{\"Logloss\":0.23464998602867126},{\"Logloss\":0.23455461859703064},{\"Logloss\":0.23448440432548523},{\"Logloss\":0.2344064712524414},{\"Logloss\":0.23431846499443054},{\"Logloss\":0.2342410832643509},{\"Logloss\":0.23420500755310059},{\"Logloss\":0.23412945866584778},{\"Logloss\":0.23407793045043945},{\"Logloss\":0.23399026691913605},{\"Logloss\":0.2339249551296234},{\"Logloss\":0.23387113213539124},{\"Logloss\":0.2337588220834732},{\"Logloss\":0.23366937041282654},{\"Logloss\":0.23360824584960938},{\"Logloss\":0.23352405428886414},{\"Logloss\":0.23343835771083832},{\"Logloss\":0.23337960243225098},{\"Logloss\":0.23326951265335083},{\"Logloss\":0.2330755740404129},{\"Logloss\":0.2329551875591278}],\"test_best_error\":[]}}"
    },
  "oblivious_trees":
    [
      {
        "leaf_values":
          [
            0.020041007775722441,
            0.017776955860980371,
            0,
            0,
            0,
            0,
            0,
            0,
            0.037915046130068464,
            -0.031114877238952787,
            0,
            0,
            0,
            0,
            0,
            0,
            0,
            -0.028778010768781444,
            0,
            0,
            0,
            0,
            0,
            0,
            0,
            -0.030231476378353248,
            0,
            0.014339167153662635,
            0,
            0,
            0,
            0,
            0,
            0,
            0,
            0,
            0,
            0,
            0,
            0,
            0,
            0,
            0,
            0,
            0,
            0,
            0,
            0,
            0,
            0,
            0,
            0,
            0,
            -0.022460017915097389,
            0,
            0,
            0,
            -0.0090014902023770379,
            0,
            0.0092918197591201675,
            0,
            -0.0012718699262291024,
            0,
            0.010056909934639476
          ],
        "leaf_weights":
          [
            5,
            12,
            0,
            0,
            0,
            0,
            0,
            0,
            57,
            22,
            0,
            0,
            0,
            0,
            0,
            0,
            0,
            16,
            0,
            0,
            0,
            0,
            0,
            0,
            0,
            57,
            0,
            59,
            0,
            0,
            0,
            0,
            0,
            0,
            0,
            0,
            0,
            0,
            0,
            0,
            0,
            0,
            0,
            0,
            0,
            0,
            0,
            0,
            0,
            0,
            0,
            0,
            0,
            39,
            0,
            0,
            0,
            21,
            0,
            13,
            0,
            183,
            0,
            28
          ],
        "splits":
          [
            {
              "border":45.259506225585938,
              "float_feature_index":2,
              "split_index":527,
              "split_type":"FloatFeature"
            },
            {
              "border":66.512908935546875,
              "float_feature_index":0,
              "split_index":199,
              "split_type":"FloatFeature"
            },
            {
              "border":58.259761810302734,
              "float_feature_index":2,
              "split_index":626,
              "split_type":"FloatFeature"
            },
            {
              "border":45.231048583984375,
              "float_feature_index":0,
              "split_index":33,
              "split_type":"FloatFeature"
            },
            {
              "border":51.158088684082031,
              "float_feature_index":2,
              "split_index":544,
              "split_type":"FloatFeature"
            },
            {
              "border":58.180233001708984,
              "float_feature_index":2,
              "split_index":610,
              "split_type":"FloatFeature"
            }
          ]
      },
      {
        "leaf_values":
          [
            0.025849820071782478,
            -0.016285303638479597,
            0,
            0,
            0.018233449942525286,
            0,
            0,
            0,
            0,
            0,
            0,
            0,
            0,
            0,
            0,
            0,
            0.019793927020221789,
            -0.019870610485986248,
            0,
            0,
            0.013060624645579609,
            0,
            0,
            0,
            0.018117656563567036,
            -0.027083661620837293,
            0,
            0.0021190429419596073,
            0.028296111903984466,
            -0.017230070986045988,
            0,
            0.014960424493114863,
            0,
            -0.017662314411420382,
            0,
            0,
            0,
            0,
            0,
            0,
            0,
            0,
            0,
            0,
            0,
            0,
            0,
            0,
            0,
            -0.0031286375031561397,
            0,
            0,
            0,
            0,
            0,
            0,
            0,
            -0.000828428532780349,
            0,
            0.0161466439220945,
            0,
            -0.0017108153821805241,
            0,
            0.0016430739775299917
          ],
        "leaf_weights":
          [
            11,
            19,
            0,
            0,
            4,
            0,
            0,
            0,
            0,
            0,
            0,
            0,
            0,
            0,
            0,
            0,
            5,
            5,
            0,
            0,
            2,
            0,
            0,
            0,
            4,
            13,
            0,
            7,
            46,
            84,
            0,
            72,
            0,
            44,
            0,
            0,
            0,
            0,
            0,
            0,
            0,
            0,
            0,
            0,
            0,
            0,
            0,
            0,
            0,
            20,
            0,
            0,
            0,
            0,
            0,
            0,
            0,
            148,
            0,
            10,
            0,
            9,
            0,
            9
          ],
        "splits":
          [
            {
              "border":45.684017181396484,
              "float_feature_index":2,
              "split_index":532,
              "split_type":"FloatFeature"
            },
            {
              "border":66.752883911132813,
              "float_feature_index":0,
              "split_index":200,
              "split_type":"FloatFeature"
            },
            {
              "border":100.4566650390625,
              "float_feature_index":1,
              "split_index":387,
              "split_type":"FloatFeature"
            },
            {
              "border":47.174766540527344,
              "float_feature_index":0,
              "split_index":52,
              "split_type":"FloatFeature"
            },
            {
              "border":45.517784118652344,
              "float_feature_index":0,
              "split_index":36,
              "split_type":"FloatFeature"
            },
            {
              "border":58.269142150878906,
              "float_feature_index":2,
              "split_index":631,
              "split_type":"FloatFeature"
            }
          ]
      },
      {
        "leaf_values":
          [
            0,
            -0.004489429986471471,
            0,
            0,
            0,
            0,
            0,
            0,
            0,
            -0.03048115981353277,
            0,
            0,
            0,
            0.0032430956783685936,
            0,
            0,
            0.021150594880671742,
            -0.0038429628536217992,
            0,
            0,
            0.025616003923364696,
            -0.024990515972363462,
            0,
            0,
            0,
            -0.024995219578706443,
            0,
            0,
            0,
            -0.019520907888893956,
            0,
            0,
            0,
            0,
            0,
            0,
            0,
            0,
            0,
            0,
            0,
            0,
            0,
            0,
            0,
            0.0084916480006573848,
            0,
            0,
            0,
            0,
            0,
            0,
            0.036361067067115192,
            -0.018318836951845961,
            0,
            0.013049659142831713,
            0,
            0,
            0,
            0,
            0,
            -0.0014715453509776416,
            0,
            0.0083445696523589911
          ],
        "leaf_weights":
          [
            0,
            3,
            0,
            0,
            0,
            0,
            0,
            0,
            0,
            21,
            0,
            0,
            0,
            20,
            0,
            0,
            6,
            16,
            0,
            0,
            11,
            10,
            0,
            0,
            0,
            10,
            0,
            0,
            0,
            15,
            0,
            0,
            0,
            0,
            0,
            0,
            0,
            0,
            0,
            0,
            0,
            0,
            0,
            0,
            0,
            12,
            0,
            0,
            0,
            0,
            0,
            0,
            49,
            97,
            0,
            72,
            0,
            0,
            0,
            0,
            0,
            146,
            0,
            24
          ],
        "splits":
          [
            {
              "border":45.441238403320313,
              "float_feature_index":2,
              "split_index":529,
              "split_type":"FloatFeature"
            },
            {
              "border":67.094955444335938,
              "float_feature_index":0,
              "split_index":201,
              "split_type":"FloatFeature"
            },
            {
              "border":44.002227783203125,
              "float_feature_index":0,
              "split_index":25,
              "split_type":"FloatFeature"
            },
            {
              "border":58.262245178222656,
              "float_feature_index":2,
              "split_index":627,
              "split_type":"FloatFeature"
            },
            {
              "border":69.227607727050781,
              "float_feature_index":1,
              "split_index":273,
              "split_type":"FloatFeature"
            },
            {
              "border":47.259437561035156,
              "float_feature_index":0,
              "split_index":53,
              "split_type":"FloatFeature"
            }
          ]
      },
      {
        "leaf_values":
          [
            0.0085677168655489081,
            -0.010319391267730189,
            0,
            0,
            0.034042571080702737,
            -0.018983473356127233,
            0,
            0,
            0,
            0,
            0,
            0,
            0.025227400366058896,
            -0.032621560181701537,
            0,
            0,
            0,
            0,
            0,
            0,
            0,
            0,
            0,
            0,
            0,
            0,
            0,
            0,
            0,
            0,
            0,
            0,
            0,
            0,
            0,
            0,
            0,
            0,
            0,
            0,
            0,
            0,
            0,
            0,
            0,
            -0.0068009168783171462,
            0,
            0.013425476123461927,
            0,
            -0.0039817650065779812,
            0,
            0,
            0,
            -0.012020983090489436,
            0,
            0,
            0,
            0.0047148390157270761,
            0,
            0,
            0,
            0.00033314241038562916,
            0,
            0.010918480337610692
          ],
        "leaf_weights":
          [
            1,
            10,
            0,
            0,
            36,
            27,
            0,
            0,
            0,
            0,
            0,
            0,
            33,
            29,
            0,
            0,
            0,
            0,
            0,
            0,
            0,
            0,
            0,
            0,
            0,
            0,
            0,
            0,
            0,
            0,
            0,
            0,
            0,
            0,
            0,
            0,
            0,
            0,
            0,
            0,
            0,
            0,
            0,
            0,
            0,
            14,
            0,
            14,
            0,
            68,
            0,
            0,
            0,
            64,
            0,
            0,
            0,
            3,
            0,
            0,
            0,
            171,
            0,
            42
          ],
        "splits":
          [
            {
              "border":45.592781066894531,
              "float_feature_index":2,
              "split_index":531,
              "split_type":"FloatFeature"
            },
            {
              "border":69.777420043945313,
              "float_feature_index":0,
              "split_index":220,
              "split_type":"FloatFeature"
            },
            {
              "border":74.110427856445313,
              "float_feature_index":1,
              "split_index":286,
              "split_type":"FloatFeature"
            },
            {
              "border":53.090690612792969,
              "float_feature_index":0,
              "split_index":100,
              "split_type":"FloatFeature"
            },
            {
              "border":57.983894348144531,
              "float_feature_index":2,
              "split_index":578,
              "split_type":"FloatFeature"
            },
            {
              "border":57.699577331542969,
              "float_feature_index":2,
              "split_index":564,
              "split_type":"FloatFeature"
            }
          ]
      },
      {
        "leaf_values":
          [
            0.021804850653981873,
            0,
            0,
            0,
            0,
            0,
            0,
            0,
            0.02657903570631194,
            -0.012724362679076262,
            0,
            0,
            0,
            -0.013899654190306508,
            0,
            0,
            0,
            0,
            0,
            0,
            0,
            0,
            0,
            0,
            0,
            0,
            0,
            0,
            0,
            -0.0091751442863176776,
            0,
            0,
            0.034955153481903076,
            0,
            0,
            0,
            0,
            0,
            0,
            0,
            0.012261401614432576,
            -0.012633457057970223,
            0,
            0.011460573739772228,
            0,
            -0.0010607236874950847,
            0,
            0.014038406510689936,
            0,
            0,
            0,
            0,
            0,
            0,
            0,
            0,
            0,
            0,
            0,
            0,
            0,
            0.0013435578428657149,
            0,
            0
          ],
        "leaf_weights":
          [
            7,
            0,
            0,
            0,
            0,
            0,
            0,
            0,
            13,
            26,
            0,
            0,
            0,
            8,
            0,
            0,
            0,
            0,
            0,
            0,
            0,
            0,
            0,
            0,
            0,
            0,
            0,
            0,
            0,
            62,
            0,
            0,
            43,
            0,
            0,
            0,
            0,
            0,
            0,
            0,
            7,
            122,
            0,
            84,
            0,
            84,
            0,
            8,
            0,
            0,
            0,
            0,
            0,
            0,
            0,
            0,
            0,
            0,
            0,
            0,
            0,
            48,
            0,
            0
          ],
        "splits":
          [
            {
              "border":45.592781066894531,
              "float_feature_index":2,
              "split_index":531,
              "split_type":"FloatFeature"
            },
            {
              "border":67.415138244628906,
              "float_feature_index":0,
              "split_index":203,
              "split_type":"FloatFeature"
            },
            {
              "border":58.336872100830078,
              "float_feature_index":2,
              "split_index":646,
              "split_type":"FloatFeature"
            },
            {
              "border":43.801292419433594,
              "float_feature_index":2,
              "split_index":521,
              "split_type":"FloatFeature"
            },
            {
              "border":58.600357055664063,
              "float_feature_index":2,
              "split_index":695,
              "split_type":"FloatFeature"
            },
            {
              "border":47.586845397949219,
              "float_feature_index":0,
              "split_index":55,
              "split_type":"FloatFeature"
            }
          ]
      },
      {
        "leaf_values":
          [
            0.021090741978769322,
            -0.017889910780603296,
            0,
            0,
            0,
            0,
            0,
            0,
            0.035168540341433609,
            -0.036553478748205519,
            0,
            0,
            0.014373751654685008,
            -0.017723716543218186,
            0,
            0.016841491138782864,
            0,
            0,
            0,
            0,
            0,
            0,
            0,
            0,
            0,
            0,
            0,
            0,
            0,
            0,
            0,
            0.011305978019743635,
            0,
            -0.027180652781823154,
            0,
            0,
            0,
            0,
            0,
            0,
            0,
            -0.0049297816835511717,
            0,
            0,
            0,
            0.002306547361744799,
            0,
            0.0093411112995535929,
            0,
            0,
            0,
            0,
            0,
            0,
            0,
            0,
            0,
            0,
            0,
            0,
            0,
            0,
            0,
            0.0061537227869578421
          ],
        "leaf_weights":
          [
            6,
            4,
            0,
            0,
            0,
            0,
            0,
            0,
            45,
            52,
            0,
            0,
            25,
            47,
            0,
            31,
            0,
            0,
            0,
            0,
            0,
            0,
            0,
            0,
            0,
            0,
            0,
            0,
            0,
            0,
            0,
            28,
            0,
            14,
            0,
            0,
            0,
            0,
            0,
            0,
            0,
            153,
            0,
            0,
            0,
            70,
            0,
            27,
            0,
            0,
            0,
            0,
            0,
            0,
            0,
            0,
            0,
            0,
            0,
            0,
            0,
            0,
            0,
            10
          ],
        "splits":
          [
            {
              "border":46.13812255859375,
              "float_feature_index":2,
              "split_index":534,
              "split_type":"FloatFeature"
            },
            {
              "border":67.094955444335938,
              "float_feature_index":0,
              "split_index":201,
              "split_type":"FloatFeature"
            },
            {
              "border":57.370674133300781,
              "float_feature_index":0,
              "split_index":131,
              "split_type":"FloatFeature"
            },
            {
              "border":41.091361999511719,
              "float_feature_index":0,
              "split_index":9,
              "split_type":"FloatFeature"
            },
            {
              "border":70.142074584960938,
              "float_feature_index":0,
              "split_index":228,
              "split_type":"FloatFeature"
            },
            {
              "border":58.201305389404297,
              "float_feature_index":2,
              "split_index":615,
              "split_type":"FloatFeature"
            }
          ]
      },
      {
        "leaf_values":
          [
            0.028033005700408727,
            0.022179199115996761,
            0,
            0,
            0,
            0,
            0,
            0,
            0.035299472901304869,
            -0.026416651326703171,
            0.0080380744222270477,
            0,
            0,
            0,
            0,
            0,
            0,
            -0.030261311720349675,
            0,
            0,
            0,
            -0.020931232818294586,
            0,
            0,
            0,
            -0.017593930814265052,
            0,
            0.0094855562587557885,
            0,
            -0.0019391879439181502,
            0,
            0.0057150191345810373,
            0,
            0,
            0,
            0,
            0,
            0,
            0,
            0,
            0,
            0,
            0,
            0,
            0,
            0,
            0,
            0,
            0,
            0,
            0,
            0,
            0,
            -0.0098592800717137025,
            0,
            0,
            0,
            0,
            0,
            0,
            0,
            0.0011458784520919458,
            0,
            0
          ],
        "leaf_weights":
          [
            17,
            7,
            0,
            0,
            0,
            0,
            0,
            0,
            48,
            13,
            1,
            0,
            0,
            0,
            0,
            0,
            0,
            22,
            0,
            0,
            0,
            6,
            0,
            0,
            0,
            82,
            0,
            96,
            0,
            85,
            0,
            19,
            0,
            0,
            0,
            0,
            0,
            0,
            0,
            0,
            0,
            0,
            0,
            0,
            0,
            0,
            0,
            0,
            0,
            0,
            0,
            0,
            0,
            58,
            0,
            0,
            0,
            0,
            0,
            0,
            0,
            58,
            0,
            0
          ],
        "splits":
          [
            {
              "border":45.441238403320313,
              "float_feature_index":2,
              "split_index":529,
              "split_type":"FloatFeature"
            },
            {
              "border":64.012298583984375,
              "float_feature_index":0,
              "split_index":191,
              "split_type":"FloatFeature"
            },
            {
              "border":58.300193786621094,
              "float_feature_index":2,
              "split_index":638,
              "split_type":"FloatFeature"
            },
            {
              "border":47.174766540527344,
              "float_feature_index":0,
              "split_index":52,
              "split_type":"FloatFeature"
            },
            {
              "border":50.496986389160156,
              "float_feature_index":2,
              "split_index":539,
              "split_type":"FloatFeature"
            },
            {
              "border":58.580223083496094,
              "float_feature_index":2,
              "split_index":692,
              "split_type":"FloatFeature"
            }
          ]
      },
      {
        "leaf_values":
          [
            0,
            -0.0062315203010238438,
            0,
            0,
            0,
            0,
            0,
            0,
            0.030204999052159863,
            -0.014292217599047904,
            0,
            0.0076783918253088687,
            0,
            -0.0068913974920820874,
            0,
            0.0049731851171568794,
            0,
            0,
            0,
            0,
            0,
            -0.003637032419697009,
            0,
            0,
            0,
            0,
            0,
            0,
            0,
            -0.002858478576230155,
            0,
            0.018050142760640014,
            0,
            0,
            0,
            0,
            0,
            0,
            0,
            0,
            0.026615359064395196,
            -0.029519462032232473,
            0,
            0.015826622806726715,
            0,
            0.016279215787604651,
