{
  "features_info":
    {
      "float_features":
        [
          {
            "borders":
              [
                40.125007629394531,
                40.262916564941406,
                40.368064880371094,
                40.427589416503906,
                40.459552764892578,
                40.516143798828125,
                40.640708923339844,
                40.711383819580078,
                40.781730651855469,
                40.9178466796875,
                41.091361999511719,
                41.306427001953125,
                41.444725036621094,
                41.488567352294922,
                41.593116760253906,
                41.675819396972656,
                41.705265045166016,
                41.755599975585938,
                41.891082763671875,
                42.141395568847656,
                42.265830993652344,
                42.621696472167969,
                42.876453399658203,
                42.983249664306641,
                43.281532287597656,
                43.539608001708984,
                44.002227783203125,
                44.393272399902344,
                44.547569274902344,
                44.731040954589844,
                44.867172241210938,
                44.947311401367188,
                45.076885223388672,
                45.177150726318359,
                45.231048583984375,
                45.337940216064453,
                45.494049072265625,
                45.517784118652344,
                45.532020568847656,
                45.622718811035156,
                45.801033020019531,
                45.986900329589844,
                46.097236633300781,
                46.15704345703125,
                46.232872009277344,
                46.264411926269531,
                46.355209350585938,
                46.511829376220703,
                46.546653747558594,
                46.575454711914063,
                46.599342346191406,
                46.711257934570313,
                46.94732666015625,
                47.174766540527344,
                47.259437561035156,
                47.391937255859375,
                47.586845397949219,
                47.716278076171875,
                47.780799865722656,
                47.886680603027344,
                48.064262390136719,
                48.524665832519531,
                48.724411010742188,
                48.788772583007813,
                48.919975280761719,
                49.111465454101563,
                49.423355102539063,
                49.964023590087891,
                50.062721252441406,
                50.141391754150391,
                50.192878723144531,
                50.299522399902344,
                50.369899749755859,
                50.474250793457031,
                50.504554748535156,
                50.598842620849609,
                50.672897338867188,
                50.902622222900391,
                50.966602325439453,
                51.093257904052734,
                51.137725830078125,
                51.154167175292969,
                51.196250915527344,
                51.292415618896484,
                51.39129638671875,
                51.46026611328125,
                51.483863830566406,
                51.583992004394531,
                51.654647827148438,
                51.734687805175781,
                51.769435882568359,
                51.844879150390625,
                52.000450134277344,
                52.0997314453125,
                52.168243408203125,
                52.339157104492188,
                52.489120483398438,
                52.619277954101563,
                52.802993774414063,
                52.879108428955078,
                52.956550598144531,
                53.090690612792969,
                53.331878662109375,
                53.446140289306641,
                53.52276611328125,
                53.658203125,
                54.118301391601563,
                54.470848083496094,
                54.66595458984375,
                54.758949279785156,
                54.891876220703125,
                55.012405395507813,
                55.078742980957031,
                55.200672149658203,
                55.354156494140625,
                55.453697204589844,
                55.541641235351563,
                55.657405853271484,
                55.762947082519531,
                55.795448303222656,
                55.823226928710938,
                55.906234741210938,
                56.011672973632813,
                56.167411804199219,
                56.356143951416016,
                56.501083374023438,
                56.600513458251953,
                56.734779357910156,
                56.872062683105469,
                56.949199676513672,
                57.007499694824219,
                57.055294036865234,
                57.18255615234375,
                57.299789428710938,
                57.370674133300781,
                57.389610290527344,
                57.482189178466797,
                57.552864074707031,
                57.590679168701172,
                57.652549743652344,
                57.736129760742188,
                57.820365905761719,
                57.95880126953125,
                58.088523864746094,
                58.368389129638672,
                58.419200897216797,
                58.445064544677734,
                58.478446960449219,
                58.54461669921875,
                58.74005126953125,
                58.9385986328125,
                59.047637939453125,
                59.116806030273438,
                59.137649536132813,
                59.407691955566406,
                59.528820037841797,
                59.616043090820313,
                59.796730041503906,
                59.887310028076172,
                60.058666229248047,
                60.224868774414063,
                60.274993896484375,
                60.298934936523438,
                60.335845947265625,
                60.477516174316406,
                60.600471496582031,
                60.666645050048828,
                60.810619354248047,
                60.846992492675781,
                60.914348602294922,
                61.020675659179688,
                61.211357116699219,
                61.33404541015625,
                61.380950927734375,
                61.502532958984375,
                61.572296142578125,
                61.609390258789063,
                61.655601501464844,
                61.721439361572266,
                61.879459381103516,
                62.023666381835938,
                62.155029296875,
                62.436119079589844,
                62.630447387695313,
                62.827793121337891,
                63.125011444091797,
                63.219497680664063,
                63.30224609375,
                63.318290710449219,
                63.366065979003906,
                63.381694793701172,
                63.586845397949219,
                63.658447265625,
                63.765830993652344,
                63.863971710205078,
                64.012298583984375,
                64.214363098144531,
                64.36566162109375,
                64.576553344726563,
                64.890045166015625,
                65.510307312011719,
                65.851181030273438,
                66.125808715820313,
                66.512908935546875,
                66.752883911132813,
                67.094955444335938,
                67.222633361816406,
                67.415138244628906,
                67.504051208496094,
                67.595199584960938,
                67.825515747070313,
                67.947723388671875,
                68.221328735351563,
                68.711074829101563,
                69.11492919921875,
                69.154922485351563,
                69.194808959960938,
                69.275634765625,
                69.461448669433594,
                69.523956298828125,
                69.603134155273438,
                69.665458679199219,
                69.722793579101563,
                69.7392578125,
                69.777420043945313,
                69.797660827636719,
                69.816871643066406,
                69.85443115234375,
                69.900657653808594,
                69.974075317382813,
                69.987411499023438,
                70.001983642578125,
                70.142074584960938,
                70.367408752441406,
                70.400138854980469,
                70.494583129882813,
                70.522132873535156,
                70.630264282226563,
                70.862045288085938,
                71.458770751953125,
                71.773521423339844,
                72.019805908203125,
                72.727981567382813
              ],
            "feature_id":"noise_db",
            "feature_index":0,
            "flat_feature_index":0,
            "has_nans":false,
            "nan_value_treatment":"AsIs"
          },
          {
            "borders":
              [
                50.400890350341797,
                52.354755401611328,
                54.194835662841797,
                55.1435546875,
                56.754634857177734,
                58.266208648681641,
                58.762657165527344,
                59.728744506835938,
                60.588088989257813,
                61.224700927734375,
                62.13653564453125,
                62.690692901611328,
                63.232856750488281,
                63.448879241943359,
                64.259765625,
                64.477554321289063,
                64.971809387207031,
                65.463424682617188,
                65.517509460449219,
                65.97119140625,
                66.244552612304688,
                66.317291259765625,
                66.989212036132813,
                67.52252197265625,
                68.092529296875,
                68.528907775878906,
                68.916885375976563,
                69.227607727050781,
                70.29119873046875,
                71.115066528320313,
                71.260322570800781,
                71.474212646484375,
                71.640625,
                72.078559875488281,
                72.652122497558594,
                72.94793701171875,
                73.375328063964844,
                73.866798400878906,
                74.027229309082031,
                74.07867431640625,
                74.496376037597656,
                74.643798828125,
                74.963043212890625,
                75.297607421875,
                75.675582885742188,
                76.050888061523438,
                77.039230346679688,
                77.157730102539063,
                77.279441833496094,
                77.409866333007813,
                78.2686767578125,
                78.626960754394531,
                78.853713989257813,
                79.085159301757813,
                79.568939208984375,
                79.8857421875,
                80.412139892578125,
                80.695945739746094,
                81.020301818847656,
                81.321517944335938,
                81.390167236328125,
                81.420677185058594,
                81.628494262695313,
                82.006103515625,
                82.775360107421875,
                82.9332275390625,
                83.192550659179688,
                83.462844848632813,
                83.581924438476563,
                84.224502563476563,
                84.524612426757813,
                84.771087646484375,
                85.0074462890625,
                85.266860961914063,
                85.443473815917969,
                85.588973999023438,
                85.818252563476563,
                86.334403991699219,
                86.69219970703125,
                86.833724975585938,
                87.031646728515625,
                87.310371398925781,
                87.502876281738281,
                87.593399047851563,
                87.807762145996094,
                87.943687438964844,
                88.180419921875,
                88.423019409179688,
                88.548477172851563,
                88.711761474609375,
                88.889602661132813,
                89.346786499023438,
                89.737892150878906,
                90.111007690429688,
                90.268692016601563,
                90.31951904296875,
                90.529144287109375,
                90.757736206054688,
                91.0611572265625,
                91.54949951171875,
                91.790534973144531,
                92.085540771484375,
                92.454238891601563,
                92.788833618164063,
                92.98419189453125,
                93.273239135742188,
                93.590988159179688,
                93.714248657226563,
                93.894454956054688,
                94.017814636230469,
                94.198776245117188,
                94.380096435546875,
                94.448944091796875,
                94.516815185546875,
                94.772659301757813,
                94.889205932617188,
                95.146530151367188,
                95.479385375976563,
                95.705215454101563,
                96.075027465820313,
                96.470870971679688,
                96.7479248046875,
                96.913589477539063,
                97.029571533203125,
                97.2489013671875,
                97.436508178710938,
                97.61279296875,
                97.672073364257813,
                97.787033081054688,
                97.901199340820313,
                98.077484130859375,
                98.22515869140625,
                98.412834167480469,
                98.87164306640625,
                99.590972900390625,
                99.7706298828125,
                99.884811401367188,
                99.998085021972656,
                100.3231201171875,
                100.4566650390625,
                100.58364868164063,
                100.68318176269531,
                101.08659362792969,
                101.30500793457031,
                101.40174865722656,
                101.64633178710938,
                101.85978698730469,
                102.08938598632813,
                102.31942749023438,
                102.47479248046875,
                102.57598114013672,
                102.77974700927734,
                102.94993591308594,
                103.12669372558594,
                103.42805480957031,
                103.64987182617188,
                103.99571228027344,
                104.17320251464844,
                104.2857666015625,
                104.5650634765625,
                104.65191650390625,
                104.80658721923828,
                104.96913146972656,
                105.40796661376953,
                105.43008422851563,
                105.51460266113281,
                105.68811798095703,
                105.86573791503906,
                106.17021179199219,
                106.34037780761719,
                106.56305694580078,
                106.67131042480469,
                106.90678405761719,
                107.09884643554688,
                107.35568237304688,
                107.44758605957031,
                107.76486968994141,
                107.85332489013672,
                108.04129028320313,
                108.2169189453125,
                108.58638763427734,
                108.84204864501953,
                109.43958282470703,
                109.72557067871094,
                109.77734375,
                109.83123779296875,
                110.07897186279297,
                110.9515380859375,
                111.37355804443359,
                111.69059753417969,
                112.22893524169922,
                112.68672180175781,
                112.95477294921875,
                113.43656921386719,
                113.61039733886719,
                113.78169250488281,
                113.91653442382813,
                114.11341094970703,
                114.26329040527344,
                114.80270385742188,
                115.36430358886719,
                115.57620239257813,
                115.79512023925781,
                115.85657501220703,
                115.92977905273438,
                116.106201171875,
                116.49508666992188,
                116.75124359130859,
                116.93109130859375,
                117.02093505859375,
                117.37574768066406,
                117.65396881103516,
                117.76934814453125,
                118.00936889648438,
                118.4730224609375,
                118.80458831787109,
                119.28973388671875,
                119.58334350585938,
                119.77507781982422,
                120.10674285888672,
                120.17501068115234,
                120.40464019775391,
                120.52167510986328,
                120.63505554199219,
                120.85691833496094,
                122.39599609375,
                123.12301635742188,
                123.47248840332031,
                123.92027282714844,
                124.05584716796875,
                124.25354766845703,
                124.92947387695313,
                125.73118591308594,
                126.18662261962891,
                126.68177795410156,
                126.94635009765625,
                127.07643127441406,
                127.38776397705078,
                127.51866912841797,
                127.79293823242188,
                130.2412109375,
                131.07792663574219,
                133.19015502929688,
                135.1641845703125,
                138.05734252929688,
                139.1141357421875,
                142.58425903320313,
                145.48509216308594
              ],
            "feature_id":"water_outlet_temp",
            "feature_index":1,
            "flat_feature_index":1,
            "has_nans":false,
            "nan_value_treatment":"AsIs"
          },
          {
            "borders":
              [
                38.821784973144531,
                39.024032592773438,
                39.111202239990234,
                39.363754272460938,
                40.633293151855469,
                40.963401794433594,
                41.135589599609375,
                41.856651306152344,
                41.957767486572266,
                42.516998291015625,
                42.671096801757813,
                42.7589111328125,
                43.758377075195313,
                43.801292419433594,
                43.888069152832031,
                44.033771514892578,
                45.154914855957031,
                45.201278686523438,
                45.259506225585938,
                45.366844177246094,
                45.441238403320313,
                45.540718078613281,
                45.592781066894531,
                45.684017181396484,
                45.816112518310547,
                46.13812255859375,
                47.331676483154297,
                49.330787658691406,
                50.386421203613281,
                50.496986389160156,
                50.673477172851563,
                50.910411834716797,
                51.088882446289063,
                51.158088684082031,
                51.2861328125,
                51.455162048339844,
                51.675376892089844,
                51.752182006835938,
                51.766883850097656,
                51.924354553222656,
                51.988201141357422,
                52.006217956542969,
                52.13006591796875,
                52.226966857910156,
                52.337932586669922,
                52.839523315429688,
                53.404228210449219,
                53.441757202148438,
                53.490791320800781,
                53.560222625732422,
                53.653190612792969,
                53.816013336181641,
                53.93585205078125,
                57.699577331542969,
                57.795669555664063,
                57.816154479980469,
                57.850532531738281,
                57.852458953857422,
                57.868148803710938,
                57.889244079589844,
                57.908950805664063,
                57.916088104248047,
                57.928688049316406,
                57.94171142578125,
                57.951133728027344,
                57.96380615234375,
                57.974510192871094,
                57.983894348144531,
                57.993999481201172,
                57.999565124511719,
                58.001014709472656,
                58.015243530273438,
                58.018020629882813,
                58.02203369140625,
                58.030811309814453,
                58.041481018066406,
                58.045265197753906,
                58.057903289794922,
                58.059333801269531,
                58.065204620361328,
                58.067413330078125,
                58.069332122802734,
                58.074127197265625,
                58.07501220703125,
                58.078258514404297,
                58.086761474609375,
                58.098556518554688,
                58.101760864257813,
                58.108245849609375,
                58.120071411132813,
                58.129856109619141,
                58.134475708007813,
                58.138313293457031,
                58.145347595214844,
                58.159526824951172,
                58.166446685791016,
                58.171886444091797,
                58.175712585449219,
                58.180233001708984,
                58.1885986328125,
                58.191905975341797,
                58.194175720214844,
                58.198398590087891,
                58.201305389404297,
                58.204402923583984,
                58.207897186279297,
                58.213851928710938,
                58.223140716552734,
                58.233192443847656,
                58.234443664550781,
                58.236339569091797,
                58.24078369140625,
                58.242622375488281,
                58.2520751953125,
                58.259761810302734,
                58.262245178222656,
                58.264930725097656,
                58.266258239746094,
                58.267227172851563,
                58.269142150878906,
                58.278732299804688,
                58.280288696289063,
                58.283615112304688,
                58.288032531738281,
                58.291595458984375,
                58.293190002441406,
                58.300193786621094,
                58.303375244140625,
                58.307655334472656,
                58.309974670410156,
                58.319091796875,
                58.320808410644531,
                58.323493957519531,
                58.330589294433594,
                58.336872100830078,
                58.344039916992188,
                58.351142883300781,
                58.356193542480469,
                58.358821868896484,
                58.360748291015625,
                58.3673095703125,
                58.376251220703125,
                58.381767272949219,
                58.38507080078125,
                58.390220642089844,
                58.392555236816406,
                58.395057678222656,
                58.398944854736328,
                58.404457092285156,
                58.411964416503906,
                58.414608001708984,
                58.42095947265625,
                58.421981811523438,
                58.425460815429688,
                58.429176330566406,
                58.435173034667969,
                58.439544677734375,
                58.4449462890625,
                58.452178955078125,
                58.459159851074219,
                58.462837219238281,
                58.473052978515625,
                58.478309631347656,
                58.480701446533203,
                58.483711242675781,
                58.486801147460938,
                58.491687774658203,
                58.499557495117188,
                58.501930236816406,
                58.506011962890625,
                58.51654052734375,
                58.528316497802734,
                58.537612915039063,
                58.543281555175781,
                58.546676635742188,
                58.551994323730469,
                58.565219879150391,
                58.568611145019531,
                58.572799682617188,
                58.576576232910156,
                58.579071044921875,
                58.580223083496094,
                58.583362579345703,
                58.595321655273438,
                58.600357055664063,
                58.605087280273438,
                58.611839294433594,
                58.618240356445313,
                58.619274139404297,
                58.621295928955078,
                58.626743316650391,
                58.6400146484375,
                58.649959564208984,
                58.662124633789063,
                58.666305541992188,
                58.672775268554688,
                58.676990509033203,
                58.680210113525391,
                58.685943603515625,
                58.688072204589844,
                58.689826965332031,
                58.695297241210938,
                58.700408935546875,
                58.722362518310547,
                58.724567413330078,
                58.72930908203125,
                58.752044677734375,
                58.78143310546875,
                58.788650512695313,
                58.799880981445313,
                58.805164337158203,
                58.811302185058594,
                58.816715240478516,
                58.8182373046875,
                58.8302001953125,
                58.832759857177734,
                58.849685668945313,
                58.8563232421875,
                58.860000610351563,
                58.86572265625,
                58.8697509765625,
                58.887065887451172,
                58.892333984375,
                58.904891967773438,
                58.910942077636719,
                58.92462158203125,
                58.930122375488281,
                58.949924468994141,
                58.963710784912109,
                58.982177734375,
                58.990455627441406,
                59.008831024169922,
                59.018745422363281,
                59.038185119628906,
                59.043437957763672,
                59.0994873046875,
                59.142551422119141,
                59.160694122314453,
                59.165756225585938
              ],
            "feature_id":"water_flow",
            "feature_index":2,
            "flat_feature_index":2,
            "has_nans":false,
            "nan_value_treatment":"AsIs"
          }
        ]
    },
  "model_info":
    {
      "catboost_version_info":"Git info:\n    Commit: f903943a8cd903a117c3d3c8421cc72d3910562c\n    Branch: tags/v1.2.7\n    Author: akhropov <akhropov@yandex-team.com>\n    Summary: CatBoost Release 1.2.7. e8fed88cb7baa390f4cfb62bcb925f84a3f073a7\n    git-svn info:\n    Last Changed Rev: 9293085\n\nOther info:\n    Build by: Unknown user\n    Top src dir: /src/catboost\n",
      "class_params":
        {
          "class_label_type":"Integer",
          "class_names":
            [
              0,
              1
            ],
          "class_to_label":
            [
              0,
              1
            ],
          "classes_count":0
        },
      "model_guid":"a9baad5b-1c567aa1-62e64830-124b0908",
      "output_options":"{\"name\":\"experiment\",\"verbose\":0,\"test_error_log\":\"test_error.tsv\",\"json_log\":\"catboost_training.json\",\"result_model_file\":\"model\",\"roc_file\":\"\",\"eval_file_name\":\"\",\"use_best_model\":false,\"allow_writing_files\":true,\"prediction_type\":[\"RawFormulaVal\"],\"fstr_internal_file\":\"\",\"output_columns\":[\"SampleId\",\"RawFormulaVal\",\"Label\"],\"snapshot_interval\":600,\"time_left_log\":\"time_left.tsv\",\"fstr_type\":\"FeatureImportance\",\"profile_log\":\"catboost_profile.log\",\"train_dir\":\"catboost_info\",\"learn_error_log\":\"learn_error.tsv\",\"training_options_file\":\"\",\"snapshot_file\":\"experiment.cbsnapshot\",\"save_snapshot\":false,\"model_format\":[\"CatboostBinary\"],\"final_feature_calcer_computation_mode\":\"Default\",\"metric_period\":1,\"output_borders\":\"\",\"final_ctr_computation_mode\":\"Default\",\"best_model_min_trees\":1,\"fstr_regular_file\":\"\"}",
      "params":
        {
          "boosting_options":
            {
              "approx_on_full_history":false,
              "boost_from_average":false,
              "boosting_type":"Plain",
              "fold_len_multiplier":2,
              "fold_permutation_block":0,
              "iterations":1000,
              "learning_rate":0.0077410000376403332,
              "model_shrink_mode":"Constant",
              "model_shrink_rate":0,
              "od_config":
                {
                  "stop_pvalue":0,
                  "type":"None",
                  "wait_iterations":20
                },
              "permutation_count":4,
              "posterior_sampling":false
            },
          "cat_feature_params":
            {
              "combinations_ctrs":
                [
                  {
                    "ctr_binarization":
                      {
                        "border_count":15,
                        "border_type":"Uniform"
                      },
                    "ctr_type":"Borders",
                    "prior_estimation":"No",
                    "priors":
                      [
                        [
                          0,
                          1
                        ],
                        [
                          0.5,
                          1
                        ],
                        [
                          1,
                          1
                        ]
                      ],
                    "target_binarization":
                      {
                        "border_count":1,
                        "border_type":"MinEntropy"
                      }
                  },
                  {
                    "ctr_binarization":
                      {
                        "border_count":15,
                        "border_type":"Uniform"
                      },
                    "ctr_type":"Counter",
                    "prior_estimation":"No",
                    "priors":
                      [
                        [
                          0,
                          1
                        ]
                      ]
                  }
                ],
              "counter_calc_method":"SkipTest",
              "ctr_leaf_count_limit":18446744073709551615,
              "max_ctr_complexity":4,
              "one_hot_max_size":2,
              "per_feature_ctrs":
                {
                },
              "simple_ctrs":
                [
                  {
                    "ctr_binarization":
                      {
                        "border_count":15,
                        "border_type":"Uniform"
                      },
                    "ctr_type":"Borders",
                    "prior_estimation":"No",
                    "priors":
                      [
                        [
                          0,
                          1
                        ],
                        [
                          0.5,
                          1
                        ],
                        [
                          1,
                          1
                        ]
                      ],
                    "target_binarization":
                      {
                        "border_count":1,
                        "border_type":"MinEntropy"
                      }
                  },
                  {
                    "ctr_binarization":
                      {
                        "border_count":15,
                        "border_type":"Uniform"
                      },
                    "ctr_type":"Counter",
                    "prior_estimation":"No",
                    "priors":
                      [
                        [
                          0,
                          1
                        ]
                      ]
                  }
                ],
              "store_all_simple_ctr":false,
              "target_binarization":
                {
                  "border_count":1,
                  "border_type":"MinEntropy"
                }
            },
          "data_processing_options":
            {
              "allow_const_label":false,
              "auto_class_weights":"None",
              "class_names":
                [
                  0,
                  1
                ],
              "class_weights":
                [
                ],
              "classes_count":0,
              "dev_default_value_fraction_for_sparse":0.82999998331069946,
              "dev_group_features":false,
              "dev_leafwise_scoring":false,
              "dev_sparse_array_indexing":"Indices",
              "embedding_processing_options":
                {
                  "embedding_processing":
                    {
                      "default":
                        [
                          "LDA",
                          "KNN"
                        ]
                    }
                },
              "eval_fraction":0,
              "float_features_binarization":
                {
                  "border_count":254,
                  "border_type":"GreedyLogSum",
                  "dev_max_subset_size_for_build_borders":200000,
                  "nan_mode":"Min"
                },
              "force_unit_auto_pair_weights":false,
              "has_time":false,
              "ignored_features":
                [
                ],
              "per_float_feature_quantization":
                {
                },
              "target_border":null,
              "text_processing_options":
                {
                  "dictionaries":
                    [
                      {
                        "dictionary_id":"BiGram",
                        "end_of_sentence_token_policy":"Skip",
                        "end_of_word_token_policy":"Insert",
                        "gram_order":"2",
                        "max_dictionary_size":"50000",
                        "occurrence_lower_bound":"1",
                        "skip_step":"0",
                        "start_token_id":"0",
                        "token_level_type":"Word"
                      },
                      {
                        "dictionary_id":"Word",
                        "end_of_sentence_token_policy":"Skip",
                        "end_of_word_token_policy":"Insert",
                        "gram_order":"1",
                        "max_dictionary_size":"50000",
                        "occurrence_lower_bound":"1",
                        "skip_step":"0",
                        "start_token_id":"0",
                        "token_level_type":"Word"
                      }
                    ],
                  "feature_processing":
                    {
                      "default":
                        [
                          {
                            "dictionaries_names":
                              [
                                "BiGram",
                                "Word"
                              ],
                            "feature_calcers":
                              [
                                "BoW"
                              ],
                            "tokenizers_names":
                              [
                                "Space"
                              ]
                          },
                          {
                            "dictionaries_names":
                              [
                                "Word"
                              ],
                            "feature_calcers":
                              [
                                "NaiveBayes"
                              ],
                            "tokenizers_names":
                              [
                                "Space"
                              ]
                          }
                        ]
                    },
                  "tokenizers":
                    [
                      {
                        "delimiter":" ",
                        "languages":
                          [
                          ],
                        "lemmatizing":"0",
                        "lowercasing":"0",
                        "number_process_policy":"LeaveAsIs",
                        "number_token":"🔢",
                        "separator_type":"ByDelimiter",
                        "skip_empty":"1",
                        "split_by_set":"0",
                        "subtokens_policy":"SingleToken",
                        "token_types":
                          [
                            "Number",
                            "Unknown",
                            "Word"
                          ],
                        "tokenizer_id":"Space"
                      }
                    ]
                }
            },
          "detailed_profile":false,
          "flat_params":
            {
              "loss_function":"Logloss",
              "verbose":0
            },
          "logging_level":"Silent",
          "loss_function":
            {
              "params":
                {
                },
              "type":"Logloss"
            },
          "metadata":
            {
            },
          "metrics":
            {
              "custom_metrics":
                [
                ],
              "eval_metric":
                {
                  "params":
                    {
                    },
                  "type":"Logloss"
                },
              "objective_metric":
                {
                  "params":
                    {
                    },
                  "type":"Logloss"
                }
            },
          "pool_metainfo_options":
            {
              "tags":
                {
                }
            },
          "random_seed":0,
          "system_options":
            {
              "file_with_hosts":"hosts.txt",
              "node_port":0,
              "node_type":"SingleHost",
              "thread_count":2,
              "used_ram_limit":""
            },
          "task_type":"CPU",
          "tree_learner_options":
            {
              "bayesian_matrix_reg":0.10000000149011612,
              "bootstrap":
                {
                  "mvs_reg":null,
                  "subsample":0.80000001192092896,
                  "type":"MVS"
                },
              "depth":6,
              "dev_efb_max_buckets":1024,
              "dev_leafwise_approxes":false,
              "dev_score_calc_obj_block_size":5000000,
              "grow_policy":"SymmetricTree",
              "l2_leaf_reg":3,
              "leaf_estimation_backtracking":"AnyImprovement",
              "leaf_estimation_iterations":10,
              "leaf_estimation_method":"Newton",
              "max_leaves":64,
              "min_data_in_leaf":1,
              "model_size_reg":0.5,
              "monotone_constraints":
                {
                },
              "penalties":
                {
                  "feature_weights":
                    {
                    },
                  "first_feature_use_penalties":
                    {
                    },
                  "penalties_coefficient":1,
                  "per_object_feature_penalties":
                    {
                    }
                },
              "random_score_type":"NormalWithModelSizeDecrease",
              "random_strength":1,
              "rsm":1,
              "sampling_frequency":"PerTree",
              "score_function":"Cosine",
              "sparse_features_conflict_fraction":0
            }
        },
      "train_finish_time":"2024-12-13T02:08:14Z",
      "training":"{\"metrics\":{\"learn_best_error\":{\"Logloss\":0.10154639184474945},\"test_metrics_history\":[],\"learn_metrics_history\":[{\"Logloss\":0.683582603931427},{\"Logloss\":0.6743592619895935},{\"Logloss\":0.6665706634521484},{\"Logloss\":0.6574458479881287},{\"Logloss\":0.6496825218200684},{\"Logloss\":0.6414405703544617},{\"Logloss\":0.6351596117019653},{\"Logloss\":0.6271931529045105},{\"Logloss\":0.6191233992576599},{\"Logloss\":0.6106585264205933},{\"Logloss\":0.6050488948822021},{\"Logloss\":0.5975978374481201},{\"Logloss\":0.5907166004180908},{\"Logloss\":0.584192156791687},{\"Logloss\":0.5780574083328247},{\"Logloss\":0.5712749361991882},{\"Logloss\":0.5658570528030396},{\"Logloss\":0.5592963099479675},{\"Logloss\":0.5531927943229675},{\"Logloss\":0.5468087196350098},{\"Logloss\":0.541374683380127},{\"Logloss\":0.5357800126075745},{\"Logloss\":0.5301857590675354},{\"Logloss\":0.5237008333206177},{\"Logloss\":0.5185976028442383},{\"Logloss\":0.5129028558731079},{\"Logloss\":0.5085588693618774},{\"Logloss\":0.5036019086837769},{\"Logloss\":0.4996853470802307},{\"Logloss\":0.4947187304496765},{\"Logloss\":0.489300012588501},{\"Logloss\":0.48386669158935547},{\"Logloss\":0.4789988100528717},{\"Logloss\":0.47503769397735596},{\"Logloss\":0.47133517265319824},{\"Logloss\":0.4671398997306824},{\"Logloss\":0.4630092680454254},{\"Logloss\":0.4590522050857544},{\"Logloss\":0.45484113693237305},{\"Logloss\":0.4514628052711487},{\"Logloss\":0.4471062421798706},{\"Logloss\":0.4441050887107849},{\"Logloss\":0.4406580328941345},{\"Logloss\":0.43765324354171753},{\"Logloss\":0.4350833594799042},{\"Logloss\":0.43068820238113403},{\"Logloss\":0.4271997809410095},{\"Logloss\":0.42325758934020996},{\"Logloss\":0.41972973942756653},{\"Logloss\":0.41725462675094604},{\"Logloss\":0.4132436513900757},{\"Logloss\":0.40971899032592773},{\"Logloss\":0.4060884416103363},{\"Logloss\":0.4033808708190918},{\"Logloss\":0.4010656774044037},{\"Logloss\":0.3979242444038391},{\"Logloss\":0.39501214027404785},{\"Logloss\":0.39269959926605225},{\"Logloss\":0.38955622911453247},{\"Logloss\":0.38796865940093994},{\"Logloss\":0.384996235370636},{\"Logloss\":0.3820720911026001},{\"Logloss\":0.37995707988739014},{\"Logloss\":0.3769863545894623},{\"Logloss\":0.3746200203895569},{\"Logloss\":0.37333816289901733},{\"Logloss\":0.3713761568069458},{\"Logloss\":0.36953628063201904},{\"Logloss\":0.36705055832862854},{\"Logloss\":0.3648416996002197},{\"Logloss\":0.36289554834365845},{\"Logloss\":0.36050018668174744},{\"Logloss\":0.3589479923248291},{\"Logloss\":0.35708481073379517},{\"Logloss\":0.3544802665710449},{\"Logloss\":0.3523470163345337},{\"Logloss\":0.35105159878730774},{\"Logloss\":0.3491995632648468},{\"Logloss\":0.3465289771556854},{\"Logloss\":0.3444383442401886},{\"Logloss\":0.34280797839164734},{\"Logloss\":0.3409920930862427},{\"Logloss\":0.3388572633266449},{\"Logloss\":0.33656275272369385},{\"Logloss\":0.33471232652664185},{\"Logloss\":0.3328634798526764},{\"Logloss\":0.33144572377204895},{\"Logloss\":0.3296639323234558},{\"Logloss\":0.32831960916519165},{\"Logloss\":0.3259451389312744},{\"Logloss\":0.32453083992004395},{\"Logloss\":0.3229800760746002},{\"Logloss\":0.3213326632976532},{\"Logloss\":0.31948375701904297},{\"Logloss\":0.3178844153881073},{\"Logloss\":0.31685173511505127},{\"Logloss\":0.3154018521308899},{\"Logloss\":0.31383973360061646},{\"Logloss\":0.31270739436149597},{\"Logloss\":0.31164833903312683},{\"Logloss\":0.3103209137916565},{\"Logloss\":0.30875927209854126},{\"Logloss\":0.3078995943069458},{\"Logloss\":0.30653226375579834},{\"Logloss\":0.3054042160511017},{\"Logloss\":0.3043680191040039},{\"Logloss\":0.30292755365371704},{\"Logloss\":0.30134087800979614},{\"Logloss\":0.30004453659057617},{\"Logloss\":0.29881489276885986},{\"Logloss\":0.2973998188972473},{\"Logloss\":0.2965579032897949},{\"Logloss\":0.29552608728408813},{\"Logloss\":0.2945510447025299},{\"Logloss\":0.2929021120071411},{\"Logloss\":0.2915381193161011},{\"Logloss\":0.29042136669158936},{\"Logloss\":0.2893783450126648},{\"Logloss\":0.28823915123939514},{\"Logloss\":0.2874317765235901},{\"Logloss\":0.2860264778137207},{\"Logloss\":0.28544163703918457},{\"Logloss\":0.2845414876937866},{\"Logloss\":0.2837773859500885},{\"Logloss\":0.28238099813461304},{\"Logloss\":0.28139710426330566},{\"Logloss\":0.2803534269332886},{\"Logloss\":0.2796740233898163},{\"Logloss\":0.2786732017993927},{\"Logloss\":0.27716293931007385},{\"Logloss\":0.2763988673686981},{\"Logloss\":0.2754043638706207},{\"Logloss\":0.2745914161205292},{\"Logloss\":0.2737293839454651},{\"Logloss\":0.27268528938293457},{\"Logloss\":0.2716521620750427},{\"Logloss\":0.27072519063949585},{\"Logloss\":0.2700287103652954},{\"Logloss\":0.26916611194610596},{\"Logloss\":0.2684881091117859},{\"Logloss\":0.2676396369934082},{\"Logloss\":0.2670838236808777},{\"Logloss\":0.2663978636264801},{\"Logloss\":0.2655041515827179},{\"Logloss\":0.26467365026474},{\"Logloss\":0.26386186480522156},{\"Logloss\":0.26257723569869995},{\"Logloss\":0.26173460483551025},{\"Logloss\":0.26141107082366943},{\"Logloss\":0.2603325843811035},{\"Logloss\":0.25948232412338257},{\"Logloss\":0.2590223550796509},{\"Logloss\":0.2582111060619354},{\"Logloss\":0.2576550841331482},{\"Logloss\":0.2570715546607971},{\"Logloss\":0.256428599357605},{\"Logloss\":0.2558716833591461},{\"Logloss\":0.25515684485435486},{\"Logloss\":0.25432395935058594},{\"Logloss\":0.25378337502479553},{\"Logloss\":0.2532462775707245},{\"Logloss\":0.25259873270988464},{\"Logloss\":0.25202876329421997},{\"Logloss\":0.2512596845626831},{\"Logloss\":0.25057995319366455},{\"Logloss\":0.2500814199447632},{\"Logloss\":0.24963758885860443},{\"Logloss\":0.2491322159767151},{\"Logloss\":0.24845543503761292},{\"Logloss\":0.24798299372196198},{\"Logloss\":0.24745965003967285},{\"Logloss\":0.24712854623794556},{\"Logloss\":0.24663150310516357},{\"Logloss\":0.2462056279182434},{\"Logloss\":0.24555130302906036},{\"Logloss\":0.24478779733181},{\"Logloss\":0.24418339133262634},{\"Logloss\":0.24383322894573212},{\"Logloss\":0.2433207929134369},{\"Logloss\":0.24291953444480896},{\"Logloss\":0.2423199564218521},{\"Logloss\":0.24177232384681702},{\"Logloss\":0.2412872314453125},{\"Logloss\":0.24077078700065613},{\"Logloss\":0.24016378819942474},{\"Logloss\":0.23985275626182556},{\"Logloss\":0.23917555809020996},{\"Logloss\":0.23861192166805267},{\"Logloss\":0.238052099943161},{\"Logloss\":0.23738336563110352},{\"Logloss\":0.2370009422302246},{\"Logloss\":0.23654502630233765},{\"Logloss\":0.23597408831119537},{\"Logloss\":0.2353428304195404},{\"Logloss\":0.23495431244373322},{\"Logloss\":0.23464006185531616},{\"Logloss\":0.23408788442611694},{\"Logloss\":0.2338005155324936},{\"Logloss\":0.23326069116592407},{\"Logloss\":0.2328258603811264},{\"Logloss\":0.23242738842964172},{\"Logloss\":0.23207613825798035},{\"Logloss\":0.2317015677690506},{\"Logloss\":0.2312624305486679},{\"Logloss\":0.23077890276908875},{\"Logloss\":0.2303541898727417},{\"Logloss\":0.23001748323440552},{\"Logloss\":0.2295011579990387},{\"Logloss\":0.22903966903686523},{\"Logloss\":0.22862210869789124},{\"Logloss\":0.22822466492652893},{\"Logloss\":0.22787371277809143},{\"Logloss\":0.22737456858158112},{\"Logloss\":0.22690533101558685},{\"Logloss\":0.22606980800628662},{\"Logloss\":0.22552765905857086},{\"Logloss\":0.22503644227981567},{\"Logloss\":0.22469845414161682},{\"Logloss\":0.2241545021533966},{\"Logloss\":0.2237594574689865},{\"Logloss\":0.22331474721431732},{\"Logloss\":0.2229561060667038},{\"Logloss\":0.22245776653289795},{\"Logloss\":0.22211134433746338},{\"Logloss\":0.22167569398880005},{\"Logloss\":0.22148630023002625},{\"Logloss\":0.2209368795156479},{\"Logloss\":0.22059854865074158},{\"Logloss\":0.22022023797035217},{\"Logloss\":0.21993863582611084},{\"Logloss\":0.21951884031295776},{\"Logloss\":0.21916255354881287},{\"Logloss\":0.218777135014534},{\"Logloss\":0.21816641092300415},{\"Logloss\":0.21784484386444092},{\"Logloss\":0.2172863483428955},{\"Logloss\":0.21702730655670166},{\"Logloss\":0.21663495898246765},{\"Logloss\":0.21633514761924744},{\"Logloss\":0.21590299904346466},{\"Logloss\":0.21548902988433838},{\"Logloss\":0.21507734060287476},{\"Logloss\":0.2147623896598816},{\"Logloss\":0.21450720727443695},{\"Logloss\":0.21407240629196167},{\"Logloss\":0.21352283656597137},{\"Logloss\":0.21319043636322021},{\"Logloss\":0.21290293335914612},{\"Logloss\":0.21252527832984924},{\"Logloss\":0.21214154362678528},{\"Logloss\":0.21178418397903442},{\"Logloss\":0.2112729400396347},{\"Logloss\":0.2110784500837326},{\"Logloss\":0.2107752412557602},{\"Logloss\":0.21035756170749664},{\"Logloss\":0.20983989536762238},{\"Logloss\":0.20952366292476654},{\"Logloss\":0.20920643210411072},{\"Logloss\":0.2088947892189026},{\"Logloss\":0.20848174393177032},{\"Logloss\":0.20827716588974},{\"Logloss\":0.20791023969650269},{\"Logloss\":0.2075197696685791},{\"Logloss\":0.20729702711105347},{\"Logloss\":0.20702975988388062},{\"Logloss\":0.20675015449523926},{\"Logloss\":0.20642444491386414},{\"Logloss\":0.2061091959476471},{\"Logloss\":0.20575681328773499},{\"Logloss\":0.20547480881214142},{\"Logloss\":0.2052130103111267},{\"Logloss\":0.20494231581687927},{\"Logloss\":0.20461787283420563},{\"Logloss\":0.20429491996765137},{\"Logloss\":0.2040490210056305},{\"Logloss\":0.20379747450351715},{\"Logloss\":0.20362485945224762},{\"Logloss\":0.20335480570793152},{\"Logloss\":0.20304706692695618},{\"Logloss\":0.20273450016975403},{\"Logloss\":0.20233261585235596},{\"Logloss\":0.2021121382713318},{\"Logloss\":0.2018822580575943},{\"Logloss\":0.20164595544338226},{\"Logloss\":0.2013832926750183},{\"Logloss\":0.2010909467935562},{\"Logloss\":0.20074385404586792},{\"Logloss\":0.20038145780563354},{\"Logloss\":0.20020250976085663},{\"Logloss\":0.1999439299106598},{\"Logloss\":0.19969812035560608},{\"Logloss\":0.19946090877056122},{\"Logloss\":0.1990656554698944},{\"Logloss\":0.19888919591903687},{\"Logloss\":0.19852417707443237},{\"Logloss\":0.1983649730682373},{\"Logloss\":0.19811409711837769},{\"Logloss\":0.19773533940315247},{\"Logloss\":0.19739145040512085},{\"Logloss\":0.1970457136631012},{\"Logloss\":0.19676505029201508},{\"Logloss\":0.19655565917491913},{\"Logloss\":0.1961527168750763},{\"Logloss\":0.1958460658788681},{\"Logloss\":0.19547875225543976},{\"Logloss\":0.19516994059085846},{\"Logloss\":0.19483396410942078},{\"Logloss\":0.19467543065547943},{\"Logloss\":0.19433897733688354},{\"Logloss\":0.19408686459064484},{\"Logloss\":0.1937282383441925},{\"Logloss\":0.19354988634586334},{\"Logloss\":0.19316178560256958},{\"Logloss\":0.19300958514213562},{\"Logloss\":0.19280195236206055},{\"Logloss\":0.19258487224578857},{\"Logloss\":0.19244420528411865},{\"Logloss\":0.19226685166358948},{\"Logloss\":0.19218866527080536},{\"Logloss\":0.19198264181613922},{\"Logloss\":0.19170725345611572},{\"Logloss\":0.19144295156002045},{\"Logloss\":0.1912304162979126},{\"Logloss\":0.19090759754180908},{\"Logloss\":0.1906527578830719},{\"Logloss\":0.19042760133743286},{\"Logloss\":0.19025424122810364},{\"Logloss\":0.19009432196617126},{\"Logloss\":0.18993231654167175},{\"Logloss\":0.18962685763835907},{\"Logloss\":0.1894223392009735},{\"Logloss\":0.1891220510005951},{\"Logloss\":0.188897967338562},{\"Logloss\":0.18869763612747192},{\"Logloss\":0.18850362300872803},{\"Logloss\":0.18832850456237793},{\"Logloss\":0.1881229430437088},{\"Logloss\":0.18787527084350586},{\"Logloss\":0.18777106702327728},{\"Logloss\":0.1874230057001114},{\"Logloss\":0.18718454241752625},{\"Logloss\":0.1869741529226303},{\"Logloss\":0.18678376078605652},{\"Logloss\":0.18660198152065277},{\"Logloss\":0.18635958433151245},{\"Logloss\":0.18619392812252045},{\"Logloss\":0.18594200909137726},{\"Logloss\":0.1858183890581131},{\"Logloss\":0.18564797937870026},{\"Logloss\":0.1853933334350586},{\"Logloss\":0.1851380616426468},{\"Logloss\":0.1849214732646942},{\"Logloss\":0.18475766479969025},{\"Logloss\":0.18453584611415863},{\"Logloss\":0.18440406024456024},{\"Logloss\":0.18418440222740173},{\"Logloss\":0.18392673134803772},{\"Logloss\":0.1836647093296051},{\"Logloss\":0.18348407745361328},{\"Logloss\":0.18321773409843445},{\"Logloss\":0.18311208486557007},{\"Logloss\":0.18297123908996582},{\"Logloss\":0.1826028823852539},{\"Logloss\":0.18238233029842377},{\"Logloss\":0.1822274774312973},{\"Logloss\":0.18208123743534088},{\"Logloss\":0.18196804821491241},{\"Logloss\":0.18173259496688843},{\"Logloss\":0.1814717948436737},{\"Logloss\":0.18115197122097015},{\"Logloss\":0.18092678487300873},{\"Logloss\":0.1807113140821457},{\"Logloss\":0.1805655062198639},{\"Logloss\":0.18011410534381866},{\"Logloss\":0.18003086745738983},{\"Logloss\":0.17977146804332733},{\"Logloss\":0.17950192093849182},{\"Logloss\":0.17936637997627258},{\"Logloss\":0.179073765873909},{\"Logloss\":0.17884507775306702},{\"Logloss\":0.178592711687088},{\"Logloss\":0.1784282922744751},{\"Logloss\":0.1781882345676422},{\"Logloss\":0.17807799577713013},{\"Logloss\":0.1779705435037613},{\"Logloss\":0.17790722846984863},{\"Logloss\":0.1776694655418396},{\"Logloss\":0.17737269401550293},{\"Logloss\":0.17714302241802216},{\"Logloss\":0.17699220776557922},{\"Logloss\":0.17693032324314117},{\"Logloss\":0.17680373787879944},{\"Logloss\":0.17665080726146698},{\"Logloss\":0.17651313543319702},{\"Logloss\":0.1763499677181244},{\"Logloss\":0.17622625827789307},{\"Logloss\":0.17606905102729797},{\"Logloss\":0.1759493499994278},{\"Logloss\":0.17576098442077637},{\"Logloss\":0.17562055587768555},{\"Logloss\":0.17540203034877777},{\"Logloss\":0.17514079809188843},{\"Logloss\":0.17501765489578247},{\"Logloss\":0.17485865950584412},{\"Logloss\":0.17464642226696014},{\"Logloss\":0.17449688911437988},{\"Logloss\":0.1743360161781311},{\"Logloss\":0.1742400825023651},{\"Logloss\":0.1740858256816864},{\"Logloss\":0.17378219962120056},{\"Logloss\":0.17361392080783844},{\"Logloss\":0.17336441576480865},{\"Logloss\":0.17300477623939514},{\"Logloss\":0.1728428304195404},{\"Logloss\":0.17271164059638977},{\"Logloss\":0.17240945994853973},{\"Logloss\":0.17208349704742432},{\"Logloss\":0.17194733023643494},{\"Logloss\":0.17156964540481567},{\"Logloss\":0.17139092087745667},{\"Logloss\":0.17123621702194214},{\"Logloss\":0.17108038067817688},{\"Logloss\":0.170868918299675},{\"Logloss\":0.17069211602210999},{\"Logloss\":0.17050039768218994},{\"Logloss\":0.17030946910381317},{\"Logloss\":0.17012181878089905},{\"Logloss\":0.17004063725471497},{\"Logloss\":0.1699001044034958},{\"Logloss\":0.16969850659370422},{\"Logloss\":0.16952531039714813},{\"Logloss\":0.16939005255699158},{\"Logloss\":0.16923776268959045},{\"Logloss\":0.1690044403076172},{\"Logloss\":0.1688528209924698},{\"Logloss\":0.1686876118183136},{\"Logloss\":0.16853824257850647},{\"Logloss\":0.1684453934431076},{\"Logloss\":0.16830843687057495},{\"Logloss\":0.16814613342285156},{\"Logloss\":0.1680818498134613},{\"Logloss\":0.1679747849702835},{\"Logloss\":0.16782188415527344},{\"Logloss\":0.1676219254732132},{\"Logloss\":0.1674259603023529},{\"Logloss\":0.16725248098373413},{\"Logloss\":0.16714444756507874},{\"Logloss\":0.16695019602775574},{\"Logloss\":0.16672080755233765},{\"Logloss\":0.16664299368858337},{\"Logloss\":0.16652098298072815},{\"Logloss\":0.1663920283317566},{\"Logloss\":0.16623274981975555},{\"Logloss\":0.16603031754493713},{\"Logloss\":0.16592565178871155},{\"Logloss\":0.16560396552085876},{\"Logloss\":0.16544349491596222},{\"Logloss\":0.1653091311454773},{\"Logloss\":0.16521933674812317},{\"Logloss\":0.16509661078453064},{\"Logloss\":0.1649327278137207},{\"Logloss\":0.16473625600337982},{\"Logloss\":0.16456708312034607},{\"Logloss\":0.1644592136144638},{\"Logloss\":0.16430968046188354},{\"Logloss\":0.1641753613948822},{\"Logloss\":0.16400542855262756},{\"Logloss\":0.16387946903705597},{\"Logloss\":0.16364774107933044},{\"Logloss\":0.1635245978832245},{\"Logloss\":0.1633830964565277},{\"Logloss\":0.1632285714149475},{\"Logloss\":0.16299131512641907},{\"Logloss\":0.1627439558506012},{\"Logloss\":0.16266919672489166},{\"Logloss\":0.16254037618637085},{\"Logloss\":0.16239038109779358},{\"Logloss\":0.16225439310073853},{\"Logloss\":0.16211003065109253},{\"Logloss\":0.16199146211147308},{\"Logloss\":0.16185921430587769},{\"Logloss\":0.16169315576553345},{\"Logloss\":0.16151051223278046},{\"Logloss\":0.16141414642333984},{\"Logloss\":0.16128981113433838},{\"Logloss\":0.1611020863056183},{\"Logloss\":0.16094747185707092},{\"Logloss\":0.16092844307422638},{\"Logloss\":0.1607806384563446},{\"Logloss\":0.16072729229927063},{\"Logloss\":0.1605401188135147},{\"Logloss\":0.16040761768817902},{\"Logloss\":0.16030067205429077},{\"Logloss\":0.1601991504430771},{\"Logloss\":0.16005176305770874},{\"Logloss\":0.15992167592048645},{\"Logloss\":0.15976442396640778},{\"Logloss\":0.15964315831661224},{\"Logloss\":0.15945377945899963},{\"Logloss\":0.15923386812210083},{\"Logloss\":0.15907348692417145},{\"Logloss\":0.15889126062393188},{\"Logloss\":0.15862825512886047},{\"Logloss\":0.15847092866897583},{\"Logloss\":0.15837892889976501},{\"Logloss\":0.15808191895484924},{\"Logloss\":0.15797975659370422},{\"Logloss\":0.15781255066394806},{\"Logloss\":0.15774241089820862},{\"Logloss\":0.15766416490077972},{\"Logloss\":0.15754738450050354},{\"Logloss\":0.15740469098091125},{\"Logloss\":0.15725380182266235},{\"Logloss\":0.1571221947669983},{\"Logloss\":0.15697667002677917},{\"Logloss\":0.15684162080287933},{\"Logloss\":0.15660756826400757},{\"Logloss\":0.15652050077915192},{\"Logloss\":0.15643003582954407},{\"Logloss\":0.15628233551979065},{\"Logloss\":0.15617066621780396},{\"Logloss\":0.1560429334640503},{\"Logloss\":0.15590347349643707},{\"Logloss\":0.15577563643455505},{\"Logloss\":0.155714213848114},{\"Logloss\":0.15559054911136627},{\"Logloss\":0.1553887128829956},{\"Logloss\":0.15525799989700317},{\"Logloss\":0.15495696663856506},{\"Logloss\":0.15483807027339935},{\"Logloss\":0.1547311544418335},{\"Logloss\":0.15461333096027374},{\"Logloss\":0.15445125102996826},{\"Logloss\":0.1543392837047577},{\"Logloss\":0.15419593453407288},{\"Logloss\":0.15408030152320862},{\"Logloss\":0.15391218662261963},{\"Logloss\":0.1538512110710144},{\"Logloss\":0.15368574857711792},{\"Logloss\":0.15358087420463562},{\"Logloss\":0.15347561240196228},{\"Logloss\":0.1533457189798355},{\"Logloss\":0.15317344665527344},{\"Logloss\":0.1531035602092743},{\"Logloss\":0.15303105115890503},{\"Logloss\":0.15293225646018982},{\"Logloss\":0.1528279185295105},{\"Logloss\":0.15267634391784668},{\"Logloss\":0.152554452419281},{\"Logloss\":0.15237462520599365},{\"Logloss\":0.15227922797203064},{\"Logloss\":0.15208061039447784},{\"Logloss\":0.15201419591903687},{\"Logloss\":0.1517941951751709},{\"Logloss\":0.15162701904773712},{\"Logloss\":0.15153856575489044},{\"Logloss\":0.15148001909255981},{\"Logloss\":0.15138499438762665},{\"Logloss\":0.15131080150604248},{\"Logloss\":0.15116606652736664},{\"Logloss\":0.15102285146713257},{\"Logloss\":0.15085670351982117},{\"Logloss\":0.15074008703231812},{\"Logloss\":0.15067479014396667},{\"Logloss\":0.15058284997940063},{\"Logloss\":0.15045227110385895},{\"Logloss\":0.15032336115837097},{\"Logloss\":0.15012411773204803},{\"Logloss\":0.14997220039367676},{\"Logloss\":0.14987456798553467},{\"Logloss\":0.14979933202266693},{\"Logloss\":0.14969398081302643},{\"Logloss\":0.14958763122558594},{\"Logloss\":0.14945314824581146},{\"Logloss\":0.1493651270866394},{\"Logloss\":0.14927464723587036},{\"Logloss\":0.14910778403282166},{\"Logloss\":0.1489304155111313},{\"Logloss\":0.14886903762817383},{\"Logloss\":0.1487380564212799},{\"Logloss\":0.14861178398132324},{\"Logloss\":0.1482706516981125},{\"Logloss\":0.14815101027488708},{\"Logloss\":0.14804744720458984},{\"Logloss\":0.14786174893379211},{\"Logloss\":0.14773428440093994},{\"Logloss\":0.14759232103824615},{\"Logloss\":0.1473572850227356},{\"Logloss\":0.14725154638290405},{\"Logloss\":0.14717109501361847},{\"Logloss\":0.1470363587141037},{\"Logloss\":0.1469508409500122},{\"Logloss\":0.14679193496704102},{\"Logloss\":0.1467209756374359},{\"Logloss\":0.14662212133407593},{\"Logloss\":0.1464560329914093},{\"Logloss\":0.14632222056388855},{\"Logloss\":0.14610910415649414},{\"Logloss\":0.14599385857582092},{\"Logloss\":0.14589881896972656},{\"Logloss\":0.14577484130859375},{\"Logloss\":0.14561033248901367},{\"Logloss\":0.145488902926445},{\"Logloss\":0.14526811242103577},{\"Logloss\":0.14505775272846222},{\"Logloss\":0.14495471119880676},{\"Logloss\":0.14483709633350372},{\"Logloss\":0.14464330673217773},{\"Logloss\":0.14450675249099731},{\"Logloss\":0.14432847499847412},{\"Logloss\":0.14418688416481018},{\"Logloss\":0.144013911485672},{\"Logloss\":0.14389096200466156},{\"Logloss\":0.1437341868877411},{\"Logloss\":0.1436350792646408},{\"Logloss\":0.14339788258075714},{\"Logloss\":0.14319893717765808},{\"Logloss\":0.14310193061828613},{\"Logloss\":0.143002450466156},{\"Logloss\":0.1429019719362259},{\"Logloss\":0.1427568793296814},{\"Logloss\":0.1426790952682495},{\"Logloss\":0.14256244897842407},{\"Logloss\":0.14245310425758362},{\"Logloss\":0.14236553013324738},{\"Logloss\":0.14223384857177734},{\"Logloss\":0.14210155606269836},{\"Logloss\":0.14199978113174438},{\"Logloss\":0.14186188578605652},{\"Logloss\":0.14171364903450012},{\"Logloss\":0.14148132503032684},{\"Logloss\":0.14141926169395447},{\"Logloss\":0.1413213312625885},{\"Logloss\":0.1411696970462799},{\"Logloss\":0.14103156328201294},{\"Logloss\":0.14093640446662903},{\"Logloss\":0.14088502526283264},{\"Logloss\":0.14077463746070862},{\"Logloss\":0.1405983865261078},{\"Logloss\":0.1405661255121231},{\"Logloss\":0.14043176174163818},{\"Logloss\":0.1402917206287384},{\"Logloss\":0.14020618796348572},{\"Logloss\":0.14009149372577667},{\"Logloss\":0.13994474709033966},{\"Logloss\":0.13980236649513245},{\"Logloss\":0.13969296216964722},{\"Logloss\":0.13959291577339172},{\"Logloss\":0.13951624929904938},{\"Logloss\":0.13937996327877045},{\"Logloss\":0.13921774923801422},{\"Logloss\":0.1390654444694519},{\"Logloss\":0.13897868990898132},{\"Logloss\":0.13892342150211334},{\"Logloss\":0.1388111114501953},{\"Logloss\":0.1387006640434265},{\"Logloss\":0.13847634196281433},{\"Logloss\":0.13835905492305756},{\"Logloss\":0.13833066821098328},{\"Logloss\":0.1381542831659317},{\"Logloss\":0.1380610167980194},{\"Logloss\":0.13794273138046265},{\"Logloss\":0.1377989798784256},{\"Logloss\":0.13769331574440002},{\"Logloss\":0.137535959482193},{\"Logloss\":0.13728775084018707},{\"Logloss\":0.1372312754392624},{\"Logloss\":0.13711407780647278},{\"Logloss\":0.13703884184360504},{\"Logloss\":0.13691775500774384},{\"Logloss\":0.1368269920349121},{\"Logloss\":0.13667097687721252},{\"Logloss\":0.13656599819660187},{\"Logloss\":0.13648554682731628},{\"Logloss\":0.13631117343902588},{\"Logloss\":0.13617637753486633},{\"Logloss\":0.13605576753616333},{\"Logloss\":0.13593244552612305},{\"Logloss\":0.13584855198860168},{\"Logloss\":0.1357569694519043},{\"Logloss\":0.1356285810470581},{\"Logloss\":0.1354813277721405},{\"Logloss\":0.13535049557685852},{\"Logloss\":0.13519369065761566},{\"Logloss\":0.13507772982120514},{\"Logloss\":0.1349387764930725},{\"Logloss\":0.13480909168720245},{\"Logloss\":0.13465824723243713},{\"Logloss\":0.13457876443862915},{\"Logloss\":0.13452661037445068},{\"Logloss\":0.13448089361190796},{\"Logloss\":0.134336456656456},{\"Logloss\":0.13419896364212036},{\"Logloss\":0.1340429186820984},{\"Logloss\":0.13393205404281616},{\"Logloss\":0.1338026076555252},{\"Logloss\":0.13373808562755585},{\"Logloss\":0.13358725607395172},{\"Logloss\":0.1335066705942154},{\"Logloss\":0.1334710568189621},{\"Logloss\":0.13337785005569458},{\"Logloss\":0.13327571749687195},{\"Logloss\":0.1331223100423813},{\"Logloss\":0.1330312192440033},{\"Logloss\":0.13294903934001923},{\"Logloss\":0.13281147181987762},{\"Logloss\":0.1327136904001236},{\"Logloss\":0.1325659155845642},{\"Logloss\":0.13244929909706116},{\"Logloss\":0.1323813498020172},{\"Logloss\":0.13226565718650818},{\"Logloss\":0.13215240836143494},{\"Logloss\":0.13208219408988953},{\"Logloss\":0.13188710808753967},{\"Logloss\":0.131771057844162},{\"Logloss\":0.13166281580924988},{\"Logloss\":0.13155993819236755},{\"Logloss\":0.13142788410186768},{\"Logloss\":0.13130244612693787},{\"Logloss\":0.13119636476039886},{\"Logloss\":0.13111412525177002},{\"Logloss\":0.13101090490818024},{\"Logloss\":0.13091398775577545},{\"Logloss\":0.13073237240314484},{\"Logloss\":0.1305435597896576},{\"Logloss\":0.1304236352443695},{\"Logloss\":0.1302935928106308},{\"Logloss\":0.13023364543914795},{\"Logloss\":0.13007903099060059},{\"Logloss\":0.12998975813388824},{\"Logloss\":0.12987171113491058},{\"Logloss\":0.12979212403297424},{\"Logloss\":0.1296323835849762},{\"Logloss\":0.1294504702091217},{\"Logloss\":0.12937551736831665},{\"Logloss\":0.129239022731781},{\"Logloss\":0.12905722856521606},{\"Logloss\":0.1289346069097519},{\"Logloss\":0.12877023220062256},{\"Logloss\":0.12857753038406372},{\"Logloss\":0.12841114401817322},{\"Logloss\":0.1282835602760315},{\"Logloss\":0.12816894054412842},{\"Logloss\":0.12813445925712585},{\"Logloss\":0.1280198097229004},{\"Logloss\":0.12797042727470398},{\"Logloss\":0.12774890661239624},{\"Logloss\":0.12766507267951965},{\"Logloss\":0.12753090262413025},{\"Logloss\":0.1273922175168991},{\"Logloss\":0.12734942138195038},{\"Logloss\":0.1272052526473999},{\"Logloss\":0.12709960341453552},{\"Logloss\":0.12699070572853088},{\"Logloss\":0.12694114446640015},{\"Logloss\":0.12680397927761078},{\"Logloss\":0.12671497464179993},{\"Logloss\":0.12659576535224915},{\"Logloss\":0.12654481828212738},{\"Logloss\":0.1264405995607376},{\"Logloss\":0.12636199593544006},{\"Logloss\":0.12625810503959656},{\"Logloss\":0.12619835138320923},{\"Logloss\":0.12603792548179626},{\"Logloss\":0.12586046755313873},{\"Logloss\":0.12580759823322296},{\"Logloss\":0.12571118772029877},{\"Logloss\":0.1255428045988083},{\"Logloss\":0.1254192292690277},{\"Logloss\":0.1252296417951584},{\"Logloss\":0.12518176436424255},{\"Logloss\":0.12502576410770416},{\"Logloss\":0.12489856779575348},{\"Logloss\":0.1248331293463707},{\"Logloss\":0.12475888431072235},{\"Logloss\":0.1246301680803299},{\"Logloss\":0.12454041838645935},{\"Logloss\":0.12441528588533401},{\"Logloss\":0.1243511438369751},{\"Logloss\":0.12422387301921844},{\"Logloss\":0.12411493808031082},{\"Logloss\":0.123984694480896},{\"Logloss\":0.12392880767583847},{\"Logloss\":0.12384597212076187},{\"Logloss\":0.12368336319923401},{\"Logloss\":0.12362056225538254},{\"Logloss\":0.12350191175937653},{\"Logloss\":0.12333695590496063},{\"Logloss\":0.12320583313703537},{\"Logloss\":0.1230749785900116},{\"Logloss\":0.12292905896902084},{\"Logloss\":0.1228281706571579},{\"Logloss\":0.12270605564117432},{\"Logloss\":0.12259315699338913},{\"Logloss\":0.12244996428489685},{\"Logloss\":0.1223302111029625},{\"Logloss\":0.12227699160575867},{\"Logloss\":0.12219753116369247},{\"Logloss\":0.12211336195468903},{\"Logloss\":0.12200130522251129},{\"Logloss\":0.12185393273830414},{\"Logloss\":0.12165601551532745},{\"Logloss\":0.12155716121196747},{\"Logloss\":0.12146180868148804},{\"Logloss\":0.12139253318309784},{\"Logloss\":0.12129151076078415},{\"Logloss\":0.12116396427154541},{\"Logloss\":0.12098486721515656},{\"Logloss\":0.1209116131067276},{\"Logloss\":0.12078927457332611},{\"Logloss\":0.12068075686693192},{\"Logloss\":0.12060986459255219},{\"Logloss\":0.12051770091056824},{\"Logloss\":0.12044963240623474},{\"Logloss\":0.12037648260593414},{\"Logloss\":0.12015478312969208},{\"Logloss\":0.12010956555604935},{\"Logloss\":0.11989052593708038},{\"Logloss\":0.11971775442361832},{\"Logloss\":0.11956258863210678},{\"Logloss\":0.11948822438716888},{\"Logloss\":0.11938808858394623},{\"Logloss\":0.11930536478757858},{\"Logloss\":0.11918169260025024},{\"Logloss\":0.11908748000860214},{\"Logloss\":0.11892732977867126},{\"Logloss\":0.11878345906734467},{\"Logloss\":0.11869741976261139},{\"Logloss\":0.11863478273153305},{\"Logloss\":0.11852462589740753},{\"Logloss\":0.11836913228034973},{\"Logloss\":0.11826121807098389},{\"Logloss\":0.11811482906341553},{\"Logloss\":0.11804863810539246},{\"Logloss\":0.11793504655361176},{\"Logloss\":0.11776641011238098},{\"Logloss\":0.11763962358236313},{\"Logloss\":0.11757245659828186},{\"Logloss\":0.11750145256519318},{\"Logloss\":0.11742033064365387},{\"Logloss\":0.11722879111766815},{\"Logloss\":0.11706721782684326},{\"Logloss\":0.11700591444969177},{\"Logloss\":0.11687952280044556},{\"Logloss\":0.1168082058429718},{\"Logloss\":0.11672741174697876},{\"Logloss\":0.116660475730896},{\"Logloss\":0.11646772921085358},{\"Logloss\":0.11636348068714142},{\"Logloss\":0.11633380502462387},{\"Logloss\":0.11619202792644501},{\"Logloss\":0.11606378108263016},{\"Logloss\":0.1159190759062767},{\"Logloss\":0.11573315411806107},{\"Logloss\":0.11563192307949066},{\"Logloss\":0.11555388569831848},{\"Logloss\":0.11549508571624756},{\"Logloss\":0.11539854109287262},{\"Logloss\":0.11530426144599915},{\"Logloss\":0.11524432897567749},{\"Logloss\":0.11515805125236511},{\"Logloss\":0.11510521918535233},{\"Logloss\":0.11488787829875946},{\"Logloss\":0.11473121494054794},{\"Logloss\":0.11465291678905487},{\"Logloss\":0.1144360601902008},{\"Logloss\":0.11429379880428314},{\"Logloss\":0.1142158955335617},{\"Logloss\":0.11406014859676361},{\"Logloss\":0.11393819749355316},{\"Logloss\":0.11378347128629684},{\"Logloss\":0.11368757486343384},{\"Logloss\":0.1135718896985054},{\"Logloss\":0.11346109211444855},{\"Logloss\":0.11339437961578369},{\"Logloss\":0.11333267390727997},{\"Logloss\":0.11324639618396759},{\"Logloss\":0.11310873925685883},{\"Logloss\":0.11305351555347443},{\"Logloss\":0.1129336804151535},{\"Logloss\":0.11280438303947449},{\"Logloss\":0.1126955896615982},{\"Logloss\":0.11257660388946533},{\"Logloss\":0.11248163878917694},{\"Logloss\":0.11240452527999878},{\"Logloss\":0.11230252683162689},{\"Logloss\":0.11211147159337997},{\"Logloss\":0.11201107501983643},{\"Logloss\":0.11193706840276718},{\"Logloss\":0.11187370866537094},{\"Logloss\":0.11172323673963547},{\"Logloss\":0.11165689677000046},{\"Logloss\":0.11158332228660583},{\"Logloss\":0.11155819147825241},{\"Logloss\":0.11140966415405273},{\"Logloss\":0.11133234947919846},{\"Logloss\":0.11116545647382736},{\"Logloss\":0.11095413565635681},{\"Logloss\":0.11089526116847992},{\"Logloss\":0.11084328591823578},{\"Logloss\":0.11073218286037445},{\"Logloss\":0.11062513291835785},{\"Logloss\":0.11051562428474426},{\"Logloss\":0.11044113337993622},{\"Logloss\":0.11030235141515732},{\"Logloss\":0.11022025346755981},{\"Logloss\":0.11010120064020157},{\"Logloss\":0.1100565493106842},{\"Logloss\":0.10988974571228027},{\"Logloss\":0.10982690751552582},{\"Logloss\":0.10974619537591934},{\"Logloss\":0.1096666008234024},{\"Logloss\":0.10956419259309769},{\"Logloss\":0.10940954834222794},{\"Logloss\":0.10927686095237732},{\"Logloss\":0.10915081202983856},{\"Logloss\":0.10909547656774521},{\"Logloss\":0.10900191217660904},{\"Logloss\":0.10888662934303284},{\"Logloss\":0.10877285897731781},{\"Logloss\":0.1087297648191452},{\"Logloss\":0.10864222049713135},{\"Logloss\":0.10849718749523163},{\"Logloss\":0.10840041935443878},{\"Logloss\":0.10832136124372482},{\"Logloss\":0.10829748958349228},{\"Logloss\":0.10822369903326035},{\"Logloss\":0.10815374553203583},{\"Logloss\":0.10803008079528809},{\"Logloss\":0.10790601372718811},{\"Logloss\":0.1078467071056366},{\"Logloss\":0.10772281885147095},{\"Logloss\":0.10766623914241791},{\"Logloss\":0.10760238766670227},{\"Logloss\":0.10748684406280518},{\"Logloss\":0.10741105675697327},{\"Logloss\":0.10723365843296051},{\"Logloss\":0.10720190405845642},{\"Logloss\":0.10716648399829865},{\"Logloss\":0.10703432559967041},{\"Logloss\":0.10694871842861176},{\"Logloss\":0.10683285444974899},{\"Logloss\":0.10678243637084961},{\"Logloss\":0.10668285936117172},{\"Logloss\":0.1065041646361351},{\"Logloss\":0.10643146932125092},{\"Logloss\":0.10639052093029022},{\"Logloss\":0.1062442883849144},{\"Logloss\":0.10610810667276382},{\"Logloss\":0.10604774951934814},{\"Logloss\":0.10588064789772034},{\"Logloss\":0.10578528046607971},{\"Logloss\":0.10571408271789551},{\"Logloss\":0.1056346595287323},{\"Logloss\":0.10550001263618469},{\"Logloss\":0.10535860806703568},{\"Logloss\":0.10523654520511627},{\"Logloss\":0.10515034198760986},{\"Logloss\":0.10512745380401611},{\"Logloss\":0.10504983365535736},{\"Logloss\":0.10496628284454346},{\"Logloss\":0.10492229461669922},{\"Logloss\":0.10484305024147034},{\"Logloss\":0.10471448302268982},{\"Logloss\":0.10468795895576477},{\"Logloss\":0.10461916029453278},{\"Logloss\":0.10450449585914612},{\"Logloss\":0.1043931171298027},{\"Logloss\":0.10429715365171432},{\"Logloss\":0.10425955057144165},{\"Logloss\":0.10417710244655609},{\"Logloss\":0.10413375496864319},{\"Logloss\":0.10402002930641174},{\"Logloss\":0.10392197966575623},{\"Logloss\":0.10388671606779099},{\"Logloss\":0.10384775698184967},{\"Logloss\":0.10370403528213501},{\"Logloss\":0.10359057039022446},{\"Logloss\":0.10352861136198044},{\"Logloss\":0.10338713973760605},{\"Logloss\":0.1033191904425621},{\"Logloss\":0.10319076478481293},{\"Logloss\":0.10308553278446198},{\"Logloss\":0.10295002907514572},{\"Logloss\":0.10291891545057297},{\"Logloss\":0.10287302732467651},{\"Logloss\":0.10271567106246948},{\"Logloss\":0.10269613564014435},{\"Logloss\":0.10257203876972198},{\"Logloss\":0.10244370996952057},{\"Logloss\":0.10238287597894669},{\"Logloss\":0.10236813873052597},{\"Logloss\":0.10228122770786285},{\"Logloss\":0.10219915211200714},{\"Logloss\":0.10214376449584961},{\"Logloss\":0.10206401348114014},{\"Logloss\":0.10193157196044922},{\"Logloss\":0.10177843272686005},{\"Logloss\":0.10165851563215256},{\"Logloss\":0.10154639184474945}],\"test_best_error\":[]}}"
    },
  "oblivious_trees":
    [
      {
        "leaf_values":
          [
            0.0087231335326705111,
            0,
            0,
            0,
            0,
            0,
            0,
            0,
            0.031747986074864412,
            0,
            0,
            0,
            0,
            0,
            0,
            0,
            0.033824402902271893,
            0,
            0,
            0,
            0,
            0.016783855517065214,
            0,
            0,
            0.03593036593562228,
            0.028778010768781441,
            0,
            0,
            0,
            -0.0018084125717466176,
            0,
            0,
            0,
            0,
            0,
            0,
            0,
            0,
            0,
            0,
            0.027238390293574714,
            0,
            0,
            0,
            0,
            0,
            0,
            0,
            0,
            0,
            0,
            0,
            0,
            0,
            0,
            0,
            0.031438609355659286,
            0.0069509450472826865,
            0,
            -0.039543013448197245,
            0,
            -0.01354041984387191,
            0,
            -0.032863817575494843
          ],
        "leaf_weights":
          [
            1,
            0,
            0,
            0,
            0,
            0,
            0,
            0,
            24,
            0,
            0,
            0,
            0,
            0,
            0,
            0,
            32,
            0,
            0,
            0,
            0,
            39,
            0,
            0,
            43,
            16,
            0,
            0,
            0,
            129,
            0,
            0,
            0,
            0,
            0,
            0,
            0,
            0,
            0,
            0,
            13,
            0,
            0,
            0,
            0,
            0,
            0,
            0,
            0,
            0,
            0,
            0,
            0,
            0,
            0,
            0,
            23,
            38,
            0,
            72,
            0,
            54,
            0,
            28
          ],
        "splits":
          [
            {
              "border":57.699577331542969,
              "float_feature_index":2,
              "split_index":544,
              "split_type":"FloatFeature"
            },
            {
              "border":66.512908935546875,
              "float_feature_index":0,
              "split_index":203,
              "split_type":"FloatFeature"
            },
            {
              "border":58.259761810302734,
              "float_feature_index":2,
              "split_index":605,
              "split_type":"FloatFeature"
            },
            {
              "border":45.231048583984375,
              "float_feature_index":0,
              "split_index":34,
              "split_type":"FloatFeature"
            },
            {
              "border":42.671096801757813,
              "float_feature_index":2,
              "split_index":501,
              "split_type":"FloatFeature"
            },
            {
              "border":57.652549743652344,
              "float_feature_index":0,
              "split_index":139,
              "split_type":"FloatFeature"
            }
          ]
      },
      {
        "leaf_values":
          [
            0.033578293143477579,
            0,
            0.034133326786712312,
            0,
            0,
            0,
            0,
            0,
            0.01308767257034507,
            0,
            -0.0065861781407189996,
            0,
            0,
            0,
            0,
            0,
            0,
            0,
            0,
            0,
            0,
            0,
            0,
            0,
            0.033109972900135017,
            0,
            0.001563450813148691,
            0,
            0.029984152624041943,
            0,
            -0.0065787407035375021,
            0,
            0,
            0,
            0,
            0,
            0,
            0,
            0,
            0,
            0,
            0,
            0,
            0,
            0,
            0,
            0,
            0,
            0,
            0,
            0,
            0,
            0,
            0,
            0,
            0,
            0,
            0,
            0,
            0,
            0.012739853583054484,
            -0.038638815605325137,
            -0.011316580911994277,
            -0.033571791101639811
          ],
        "leaf_weights":
          [
            32,
            0,
            34,
            0,
            0,
            0,
            0,
            0,
            2,
            0,
            10,
            0,
            0,
            0,
            0,
            0,
            0,
            0,
            0,
            0,
            0,
            0,
            0,
            0,
            30,
            0,
            60,
            0,
            57,
            0,
            77,
            0,
            0,
            0,
            0,
            0,
            0,
            0,
            0,
            0,
            0,
            0,
            0,
            0,
            0,
            0,
            0,
            0,
            0,
            0,
            0,
            0,
            0,
            0,
            0,
            0,
            0,
            0,
            0,
            0,
            69,
            66,
            43,
            32
          ],
        "splits":
          [
            {
              "border":66.752883911132813,
              "float_feature_index":0,
              "split_index":204,
              "split_type":"FloatFeature"
            },
            {
              "border":58.242622375488281,
              "float_feature_index":2,
              "split_index":603,
              "split_type":"FloatFeature"
            },
            {
              "border":51.196250915527344,
              "float_feature_index":0,
              "split_index":82,
              "split_type":"FloatFeature"
            },
            {
              "border":44.947311401367188,
              "float_feature_index":0,
              "split_index":31,
              "split_type":"FloatFeature"
            },
            {
              "border":45.517784118652344,
              "float_feature_index":0,
              "split_index":37,
              "split_type":"FloatFeature"
            },
            {
              "border":58.54461669921875,
              "float_feature_index":0,
              "split_index":148,
              "split_type":"FloatFeature"
            }
          ]
      },
      {
        "leaf_values":
          [
            0.0084603310443962,
            0,
            0.024919537194311819,
            0,
            0,
            0,
            0,
            0,
            0.027305385316556869,
            0,
            0.025631399673323577,
            0,
            0,
            0,
            0,
            0,
            0,
            0,
            0,
            0,
            0,
            0,
            0,
            0,
            0,
            0,
            0,
            0,
            0,
            0,
            0,
            0,
            0,
            0,
            0.018036125856429573,
            0,
            0,
            0,
            -0.029216073898538981,
            0,
            0.024804061694776506,
            0,
            0.021081628918939582,
            0,
            0.026106084576799866,
            0,
            0.00078494901817150148,
            0,
            0,
            0,
            0,
            0,
            0,
            0,
            0,
            0,
            0,
            0,
            0,
            0,
            0.013093193534158503,
            -0.026362729623770054,
            -0.014065399388838048,
            -0.026244200280244261
          ],
        "leaf_weights":
          [
            1,
            0,
            10,
            0,
            0,
            0,
            0,
            0,
            14,
            0,
            11,
            0,
            0,
            0,
            0,
            0,
            0,
            0,
            0,
            0,
            0,
            0,
            0,
            0,
            0,
            0,
            0,
            0,
            0,
            0,
            0,
            0,
            0,
            0,
            4,
            0,
            0,
            0,
            17,
            0,
            10,
            0,
            6,
            0,
            96,
            0,
            101,
            0,
            0,
            0,
            0,
            0,
            0,
            0,
            0,
            0,
            0,
            0,
            0,
            0,
            79,
            100,
            51,
            12
          ],
        "splits":
          [
            {
              "border":64.36566162109375,
              "float_feature_index":0,
              "split_index":197,
              "split_type":"FloatFeature"
            },
            {
              "border":58.330589294433594,
              "float_feature_index":2,
              "split_index":624,
              "split_type":"FloatFeature"
            },
            {
              "border":44.002227783203125,
              "float_feature_index":0,
              "split_index":26,
              "split_type":"FloatFeature"
            },
            {
              "border":64.477554321289063,
              "float_feature_index":1,
              "split_index":258,
              "split_type":"FloatFeature"
            },
            {
              "border":57.18255615234375,
              "float_feature_index":0,
              "split_index":132,
              "split_type":"FloatFeature"
            },
            {
              "border":41.705265045166016,
              "float_feature_index":0,
              "split_index":16,
              "split_type":"FloatFeature"
            }
          ]
      },
      {
        "leaf_values":
          [
            0.038752037203245167,
            0.015682520504914459,
            0,
            0,
            0,
            0,
            0,
            0,
            0.037731662495549274,
            0,
            0,
            0,
            0.0086698487125805995,
            0.0086534308764738815,
            0,
            0,
            0,
            0,
            0,
            0,
            0,
            0,
            0,
            0,
            0,
            0,
            0,
            0,
            0,
            0,
            0,
            0,
            0,
            0,
            0,
            0,
            0,
            0,
            0,
            0,
            0,
            0.018069248842798161,
            0,
            0,
            0,
            -0.011877328180447783,
            0,
            0,
            0,
            0.014183881747992538,
            0,
            0.0024148311545398146,
            0,
            0,
            0,
            0,
            0,
            0.0033606979034659424,
            0,
            -0.017618456994129259,
            0,
            -0.040295410998889884,
            0,
            -0.0085710729411821469
          ],
        "leaf_weights":
          [
            71,
            3,
            0,
            0,
            0,
            0,
            0,
            0,
            60,
            0,
            0,
            0,
            1,
            1,
            0,
            0,
            0,
            0,
            0,
            0,
            0,
            0,
            0,
            0,
            0,
            0,
            0,
            0,
            0,
            0,
            0,
            0,
            0,
            0,
            0,
            0,
            0,
            0,
            0,
            0,
            0,
            4,
            0,
            0,
            0,
            24,
            0,
            0,
            0,
            15,
            0,
            117,
            0,
            0,
            0,
            0,
            0,
            82,
            0,
            44,
            0,
            89,
            0,
            1
          ],
        "splits":
          [
            {
              "border":53.816013336181641,
              "float_feature_index":2,
              "split_index":542,
              "split_type":"FloatFeature"
            },
            {
              "border":58.452178955078125,
              "float_feature_index":2,
              "split_index":649,
              "split_type":"FloatFeature"
            },
            {
              "border":64.012298583984375,
              "float_feature_index":0,
              "split_index":195,
              "split_type":"FloatFeature"
            },
            {
              "border":53.090690612792969,
              "float_feature_index":0,
              "split_index":101,
              "split_type":"FloatFeature"
            },
            {
              "border":57.983894348144531,
              "float_feature_index":2,
              "split_index":558,
              "split_type":"FloatFeature"
            },
            {
              "border":57.699577331542969,
              "float_feature_index":2,
              "split_index":544,
              "split_type":"FloatFeature"
            }
          ]
      },
      {
        "leaf_values":
          [
            0.021750692407048584,
            0,
            0,
            0,
            0,
            0,
            0,
            0,
            0.032139110536137182,
            0.02445778350669886,
            0,
            0,
            0,
            0.0068433442233913327,
            0,
            0,
            0,
            0,
            0,
            0,
            0,
            0,
            0,
            0,
            0,
            0,
            0,
            0,
            0,
            0,
            0,
            0,
            0.023584551885387498,
            0,
            0,
            0,
            0,
            0,
            0,
            0,
            0.023555651678881781,
            0.01288730053806224,
            0,
            0,
            0,
            0.0020524027468267147,
            0,
            0,
            0.033478227497699561,
            0,
            0,
            0,
            0,
            0,
            0,
            0,
            0.034182603259228853,
            0.0050519456561520541,
            0,
            -0.039236982314975709,
            0,
            -0.009054037413409044,
            0,
            -0.025698187839625894
          ],
        "leaf_weights":
          [
            7,
            0,
            0,
            0,
            0,
            0,
            0,
            0,
            29,
            10,
            0,
            0,
            0,
            70,
            0,
            0,
            0,
            0,
            0,
            0,
            0,
            0,
            0,
            0,
            0,
            0,
            0,
            0,
            0,
            0,
            0,
            0,
            9,
            0,
            0,
            0,
            0,
            0,
            0,
            0,
            9,
            2,
            0,
            0,
            0,
            30,
            0,
            0,
            34,
            0,
            0,
            0,
            0,
            0,
            0,
            0,
            38,
            74,
            0,
            80,
            0,
            108,
            0,
            12
          ],
        "splits":
          [
            {
              "border":53.490791320800781,
              "float_feature_index":2,
              "split_index":539,
              "split_type":"FloatFeature"
            },
            {
              "border":67.415138244628906,
              "float_feature_index":0,
              "split_index":207,
              "split_type":"FloatFeature"
            },
            {
              "border":58.309974670410156,
              "float_feature_index":2,
              "split_index":620,
              "split_type":"FloatFeature"
            },
            {
              "border":43.801292419433594,
              "float_feature_index":2,
              "split_index":504,
              "split_type":"FloatFeature"
            },
            {
              "border":51.154167175292969,
              "float_feature_index":0,
              "split_index":81,
              "split_type":"FloatFeature"
            },
            {
              "border":47.586845397949219,
              "float_feature_index":0,
              "split_index":56,
              "split_type":"FloatFeature"
            }
          ]
      },
      {
        "leaf_values":
          [
            0.024197073051421679,
            0,
            0,
            0,
            0,
            0,
            0,
            0,
            0.040049739135615672,
            0,
            0.019392432136564008,
            0,
            0.028260388828727834,
            -0.017122617330789798,
            0.011039050791849274,
            -0.02697909205331912,
            0,
            0,
            0,
            0,
            0,
            0,
            0,
            0,
            0,
            0,
            0,
            0,
            0,
            -0.029891574480585846,
            0,
            -0.020199037369207824,
            0,
            0,
            0.027175815927295423,
            0,
            0,
            0,
            0,
            0,
            0,
            0,
            0.0012379449064949522,
            0,
            0,
            0,
            -0.01089907785157963,
            -0.033120531723942505,
            0,
            0,
            0,
            0,
            0,
            0,
            0,
            0,
            0,
            0,
            0,
            0,
            0,
            0,
            0,
            -0.02409238862424791
          ],
        "leaf_weights":
          [
            10,
            0,
            0,
            0,
            0,
            0,
            0,
            0,
            92,
            0,
            5,
            0,
            49,
            23,
            16,
            15,
            0,
            0,
            0,
            0,
            0,
            0,
            0,
            0,
            0,
            0,
            0,
            0,
            0,
            22,
            0,
            6,
            0,
            0,
            14,
            0,
            0,
            0,
            0,
            0,
            0,
            0,
            153,
            0,
            0,
            0,
            63,
            34,
            0,
            0,
            0,
            0,
            0,
            0,
            0,
            0,
            0,
            0,
            0,
            0,
            0,
            0,
            0,
            10
          ],
        "splits":
          [
            {
              "border":64.576553344726563,
              "float_feature_index":0,
              "split_index":198,
              "split_type":"FloatFeature"
            },
            {
              "border":58.074127197265625,
              "float_feature_index":2,
              "split_index":573,
              "split_type":"FloatFeature"
            },
            {
              "border":57.370674133300781,
              "float_feature_index":0,
              "split_index":134,
              "split_type":"FloatFeature"
            },
            {
              "border":41.091361999511719,
              "float_feature_index":0,
              "split_index":10,
              "split_type":"FloatFeature"
            },
            {
              "border":70.142074584960938,
              "float_feature_index":0,
              "split_index":232,
              "split_type":"FloatFeature"
            },
            {
              "border":58.201305389404297,
              "float_feature_index":2,
              "split_index":594,
              "split_type":"FloatFeature"
            }
          ]
      },
      {
        "leaf_values":
          [
            0.033997402556334426,
            0,
            0.020081565305675057,
            0,
            0.013192986694709467,
            0,
            0,
            0,
            0.011487279439919755,
            -0.031379557336119378,
            0.022408837874319337,
            -0.020020870130605075,
            -0.0020458239772416184,
            -0.027116713976330066,
            -0.011334826401338458,
            -0.017193441206092626,
            0,
            0,
            0,
            0,
            0.018113894505420353,
            0,
            0,
            0,
            0,
            0,
            0,
            0,
            -0.0071866085595136244,
            0,
            0,
            0,
            0,
            0,
            0,
            0,
            0,
            0,
            0,
            0,
            0,
            0,
            0,
            0,
            0,
            0,
            0,
            0,
            0,
            0,
            0,
            0,
            0.006423217990579478,
            0,
            0,
            0,
            0,
            0,
            0,
            0,
            -0.0073187952934204818,
            0,
            0,
            0
          ],
        "leaf_weights":
          [
            40,
            0,
            6,
            0,
            2,
            0,
            0,
            0,
            36,
            28,
            109,
            67,
            61,
            15,
            6,
            4,
            0,
            0,
            0,
            0,
            4,
            0,
            0,
            0,
            0,
            0,
            0,
            0,
            18,
            0,
            0,
            0,
            0,
            0,
            0,
            0,
            0,
            0,
            0,
            0,
            0,
            0,
            0,
            0,
            0,
            0,
            0,
            0,
            0,
            0,
            0,
            0,
            58,
            0,
            0,
            0,
            0,
            0,
            0,
            0,
            58,
            0,
            0,
            0
          ],
        "splits":
          [
            {
              "border":64.214363098144531,
              "float_feature_index":0,
              "split_index":196,
              "split_type":"FloatFeature"
            },
            {
              "border":103.99571228027344,
              "float_feature_index":1,
              "split_index":399,
              "split_type":"FloatFeature"
            },
            {
              "border":58.300193786621094,
              "float_feature_index":2,
              "split_index":617,
              "split_type":"FloatFeature"
            },
            {
              "border":47.174766540527344,
              "float_feature_index":0,
              "split_index":53,
              "split_type":"FloatFeature"
            },
            {
              "border":58.51654052734375,
              "float_feature_index":2,
              "split_index":661,
              "split_type":"FloatFeature"
            },
            {
              "border":58.580223083496094,
              "float_feature_index":2,
              "split_index":672,
              "split_type":"FloatFeature"
            }
          ]
      },
      {
        "leaf_values":
          [
            0.02762286511026444,
            0,
            0,
            0,
            0,
            0.001988845880145446,
            0,
            0,
            0.033933899646051674,
            0.010866128099757934,
            0,
            0,
            0,
            0.0066814314038398815,
            0,
            0,
            0,
            0,
            0,
            0,
            0,
            -0.028314170815604119,
            0,
            0,
            0.022974608333095687,
            0.0021979423211845625,
            0,
            -0.0319010492514816,
            0,
            -0.0055127336680745615,
            0,
            -0.025757831432281997,
            0,
            0,
            0,
            0,
            0,
            0,
            0,
            0,
            0.025676372828638543,
            0,
            0,
            0,
            0,
            0,
            0,
            0,
            0,
            0,
            0,
            0,
            0,
            0,
            0,
            0,
            0.036377415291909319,
            0.014987384385830776,
            0,
            -0.036202497649495811,
            0,
            -0.019695467661881825,
            0,
            -0.017087144426440205
          ],
        "leaf_weights":
          [
            17,
            0,
            0,
            0,
